nep4 5 C N H Pb I 
cutoff 8 4 113 18
n_max 4 4
basis_size 8 8
l_max 4 2 0
ANN 30 0
  6.5778635e-02
  2.4520839e-02
 -1.4345481e-02
 -2.3494076e-02
 -1.1646209e-05
  4.1802209e-03
 -1.5009895e-03
 -1.4159666e-01
  3.9484013e-02
 -1.6507339e-02
 -3.5126403e-02
  5.0623761e-03
  1.5996303e-01
 -9.5006740e-03
  6.3415929e-03
 -7.6759666e-02
 -3.4297984e-02
  2.6382012e-03
  1.6007628e-02
 -9.4935214e-03
  6.4530373e-02
  1.1063686e-02
 -3.5971971e-03
  3.4064129e-02
  6.0915101e-02
 -1.0823948e-02
 -7.6730110e-02
  1.5898839e-02
 -7.1334988e-03
  5.8601733e-02
  3.4919598e-03
  2.4507523e-02
 -1.2702387e-02
  3.1282198e-02
 -3.5634698e-04
 -3.3824593e-03
 -5.4952176e-03
  5.1902039e-03
 -4.8133954e-03
 -1.7160809e-02
 -3.6234891e-03
  4.3029441e-03
  7.3572069e-02
  1.0391031e-02
 -2.0062260e-03
  2.3067567e-02
 -3.5186829e-03
 -1.4485088e-03
  5.1696352e-03
 -4.9862586e-04
 -7.0352778e-03
  2.2928491e-03
 -3.4478132e-03
 -1.2455340e-02
  1.5924785e-02
  4.4167573e-03
  1.7766358e-02
 -2.9502699e-02
 -1.7246401e-02
  1.0469730e-02
  8.6059505e-03
  2.5576361e-02
 -2.3167066e-02
  2.4289505e-01
  2.5930572e-02
  2.0416436e-01
  5.5339593e-02
  2.3415947e-02
 -1.0529309e-02
 -1.7050836e-02
  2.0248720e-02
  2.4792893e-02
 -9.3570920e-03
  1.0953638e-04
 -2.1390930e-02
 -1.4506589e-03
 -4.6630900e-02
 -8.0577902e-02
 -2.0969557e-02
  2.0417357e-02
 -3.4863248e-02
  1.0250920e-02
  3.0113196e-02
  7.9531647e-02
 -9.7330268e-03
 -2.0040798e-03
  1.3045954e-03
  4.0092904e-02
  8.8904547e-03
  2.1464111e-02
 -1.4260869e-01
  7.8308529e-01
 -2.4750645e-03
 -7.9348302e-01
  1.0911049e-01
 -2.1228379e-01
 -1.1422972e-03
 -1.1937496e-01
  1.0297784e+00
  1.9456798e-02
  2.1432863e-01
  1.6180216e-01
 -4.8790935e-01
  6.0183138e-01
 -4.9046054e-02
  1.7789526e-01
  6.0736185e-01
 -3.2063097e-01
  1.9312911e-01
 -1.8087109e+00
 -5.2485460e-01
 -8.2153849e-02
 -6.6546202e-02
  1.4736226e-01
  3.1723997e-01
  1.8207578e-01
 -9.7378893e-03
  1.5609339e-01
 -4.2554315e-02
  2.5542140e-02
  8.0027603e-02
  3.0955676e-02
  1.5013204e-03
  2.4858847e-01
  2.9638818e-01
  6.1217868e-01
 -4.2620385e-03
 -1.1307738e-01
  3.0927616e-04
 -1.1854143e-01
 -6.3364771e-03
 -1.9259536e-01
  7.3743808e-01
 -8.5718669e-03
  4.1005045e-01
  1.1380243e-02
 -1.3979725e-02
 -5.7041985e-01
 -1.2752537e-01
  2.2122897e-03
  2.4150324e+00
  2.5293045e-02
 -6.8670386e-01
  3.4911445e-01
  8.4962726e-01
 -2.3671819e-02
 -9.1548607e-04
 -2.4437804e-02
 -1.2562796e-02
  6.8951346e-02
  2.2343038e-02
  4.8582768e-03
 -8.5841985e-03
  1.2167291e-02
 -1.2995623e-02
 -1.7198034e-02
 -3.0649938e-02
  8.0299890e-03
  2.9424878e-03
 -7.5170635e-03
 -8.6962637e-03
  3.7039814e-03
 -1.1139983e-02
  1.1324161e-02
  1.8092910e-02
 -1.2247152e-02
 -1.9168943e-02
 -5.7073715e-03
 -4.2159535e-02
 -1.6486516e-02
  2.5867449e-02
  2.7670566e-02
  6.5442449e-03
  4.5178756e-02
  1.9134583e-02
 -2.0731126e-03
  6.3879852e-04
 -2.3554366e-03
 -9.7102337e-03
 -7.3355436e-03
  3.6969350e-04
  2.1137251e-02
 -6.4670551e-03
 -1.0488344e-02
  3.0450469e-02
 -1.0745417e-04
 -6.6445409e-03
 -1.5881959e-02
  1.1264100e-02
 -6.9315452e-03
  2.9395439e-02
 -7.4119586e-03
  4.1297013e-03
 -5.2557043e-03
 -5.6244954e-03
  2.7729966e-02
  1.2976403e-03
 -7.0306542e-04
  2.4429770e-02
  1.5907317e-02
  2.4786033e-02
  4.2334641e-03
  9.4664982e-03
 -3.4996826e-02
  1.1365968e-02
 -1.7690798e-02
 -3.8477071e-03
  3.6154188e-02
  7.4387640e-03
  9.1081550e-03
 -7.6298818e-02
 -1.4165703e-02
  3.4470517e-02
 -1.0905804e-01
  2.2705855e-02
 -2.0555031e-02
 -1.7952444e-02
 -2.8906217e-02
  9.1938674e-02
  3.2449652e-02
  2.5938716e-02
 -4.5505441e-03
 -9.3876332e-02
  2.9061428e-01
 -1.5805276e-01
  7.4465632e-02
  1.7894553e-01
  4.1394578e-03
  1.3328684e-02
 -2.8582832e-01
  1.5443398e-02
 -3.0995229e-02
 -4.4465613e-02
 -3.6345996e-02
 -4.7126319e-02
 -2.0352460e-03
 -4.6253104e-02
  3.4851315e-03
 -2.8053137e-02
  2.3089425e-01
  8.4610255e-03
 -6.5841535e-03
 -4.6651613e-02
 -2.4800448e-02
  2.0899216e-02
 -4.4286154e-02
 -1.6338790e-02
  1.3374992e-02
  1.7323116e-02
 -8.6769238e-03
  8.0690486e-03
 -2.3954151e-02
 -1.9542929e-02
 -3.4219131e-02
  8.8951401e-03
  3.0863394e-03
 -1.2106905e-02
  5.8070995e-04
 -1.1127207e-02
  8.2715498e-03
 -1.3821967e-03
  1.6551903e-02
 -3.3199047e-03
  2.0065205e-03
  1.1125765e-03
 -1.6741079e-03
  2.9200113e-03
 -1.3771861e-02
 -3.4927784e-03
  1.2757964e-02
 -4.4313213e-03
 -3.2320101e-02
 -1.1042750e-03
 -1.1165368e-02
 -2.8620524e-02
 -2.3233050e-03
  4.3953029e-03
 -6.9425381e-03
  1.2062867e-02
 -6.3840696e-03
 -2.2317002e-02
 -1.8398074e-02
 -2.2821076e+00
 -2.7541514e-03
 -3.7557841e-04
 -1.5028068e-04
  1.4664508e-02
  6.0298722e-03
 -1.7356849e-03
  3.0213550e-01
  1.2627286e-02
  4.3761041e-03
  2.1044456e-03
  1.0856757e-02
 -1.1368589e-02
 -4.2834334e-02
  2.0618927e-01
  3.2562438e-02
 -7.9345675e-03
  2.2164626e+00
 -2.5811573e-03
  5.0456490e-02
 -2.2675856e-03
  4.0895913e-02
 -1.8725511e-04
  1.5690792e-02
  1.2051242e-02
 -1.7630137e-03
 -1.8725501e-02
 -2.4703024e-02
 -9.3951458e-03
 -8.0465204e-01
  5.2506519e-03
 -1.2996949e-02
  2.8056588e-02
 -2.6073147e-02
 -3.0679340e-02
  9.9925203e-03
 -9.6909609e-03
 -9.4304672e-03
  9.8981457e-03
 -6.5220739e-03
 -2.0563131e-02
  6.3911364e-03
 -1.1280891e-02
  6.6484404e-03
 -2.5338267e-03
 -6.2122438e-02
  1.4575815e-02
  8.4390370e-03
  9.2743021e-03
 -8.3513577e-03
 -4.8553376e-03
  2.8725839e-03
  1.8352425e-02
  6.9556750e-02
  6.0047597e-01
  1.1536188e+00
  1.1032187e-02
 -3.6489479e-02
 -9.5995041e-03
  6.0318336e-03
  2.3165895e-02
 -2.2047499e-02
 -1.8964264e-01
 -3.3157259e-02
 -2.7220679e-02
 -1.2138415e-02
 -3.3362437e-02
  5.1820543e-02
  1.6262580e-01
  5.0709903e-02
 -5.1877268e-02
 -2.1823833e-03
  3.7781861e-02
  5.1446748e-04
 -8.9580445e-03
  1.2011857e-03
  5.7280129e-03
  1.2652108e-02
 -1.3264959e-01
 -2.8110461e-03
  1.1955646e-01
 -8.9362890e-02
 -1.2601013e-03
 -1.5505024e-02
  6.1159413e-03
 -7.4522980e-02
 -2.3776414e-03
 -2.6105231e-04
  9.6211559e-01
  1.1314258e-01
  5.5133805e-02
  1.9532427e-01
 -4.2038806e-02
  7.1810605e-04
  1.2886982e-01
  2.6977291e-02
  1.3004652e-02
 -1.8295344e-02
  1.7072603e-02
 -6.5565566e-03
  3.4212975e-03
 -1.8557172e-02
 -3.6574611e-03
  6.2403356e-04
  2.3321586e-02
 -1.4867387e-02
  5.7062060e-03
 -4.0267594e-03
  7.5541794e-01
 -4.8242551e-01
 -5.8634002e-02
  1.5582910e-01
  9.7611725e-01
  5.5483710e-02
 -9.5031923e-03
  2.2490969e-02
 -3.9963707e-02
 -4.4340666e-02
 -6.2250864e-02
  6.6456697e-03
  1.4524710e-01
 -1.3513792e-01
  5.5047859e-02
 -4.8444401e-02
 -3.7725428e-01
 -7.0431620e-01
 -5.1213336e-01
 -2.0850557e-01
 -2.0398869e-01
  4.6911720e-02
  1.9838746e-01
  1.3871811e-01
  5.4358460e-02
 -6.8698868e-02
  1.4237311e-02
 -6.4880331e-03
  1.5775312e-02
  6.0318168e-02
  4.4188040e-01
  1.2109481e+00
 -7.1528119e-01
  1.1814257e+00
  6.2718630e-02
  6.9360685e-01
 -1.4063159e-01
  5.1947904e-01
 -2.1938272e+00
 -1.3798417e-02
  1.5643878e+00
 -4.3584579e-01
  2.3156281e+00
 -2.1679554e+00
  1.4725900e+00
 -2.0807496e-01
 -8.2983631e-01
  3.0004168e-01
  1.3195245e-01
 -1.7923667e-01
 -1.1858602e+00
  1.4632317e-01
  5.1428396e-02
  5.5035049e-01
 -1.3660105e+00
  4.3976042e-01
 -3.0054303e-02
  3.1887274e+00
  9.3601459e-01
  1.6450052e-01
  3.4550317e-02
  3.4932285e-03
  2.8281733e-02
  1.3747484e-02
  9.7276336e-03
 -2.2641793e-02
 -6.2670927e-03
 -5.8132284e-03
  4.2559071e-03
  1.5473771e-02
  1.0043790e-03
 -1.2796471e-01
 -1.6434274e-03
  1.3303052e-02
 -1.3524380e-03
  6.2381136e-03
 -3.4543753e-04
 -1.7384278e-02
 -6.5396829e-03
  1.4915107e-02
 -1.0491296e-02
  5.8649471e-03
 -1.1366327e-02
 -3.0883484e-02
  1.0936934e-02
  1.0681276e-02
 -2.1555664e-02
 -7.0569366e-02
  1.7592229e-02
 -4.2694812e-03
  3.3751782e-02
 -1.6581802e-02
  1.0497403e-02
 -3.4729254e-03
 -9.6750744e-03
 -4.1457885e-03
  8.1236577e-03
 -4.1284549e-04
  2.4349453e-02
  7.8255739e-03
 -2.4792242e-03
 -2.7527951e-02
 -4.6426272e-03
  4.4599079e-02
 -2.9547045e-03
  2.3798317e-02
  8.6302508e-04
 -6.3431270e-02
  1.1489501e-02
  1.8161179e-02
 -6.0453184e-04
 -4.1220547e-03
 -1.6896095e-03
  1.4453977e-02
  3.6914092e-02
 -4.8315129e-03
 -7.8158183e-03
  2.1313066e-03
 -1.7678877e-03
 -3.1520771e-03
  4.3374833e-01
  2.2524950e-01
  6.9529122e-01
 -5.2155465e-01
  1.2039093e-01
  1.4365429e-01
 -6.9543542e-03
  8.7633632e-02
 -1.2287808e-02
  7.4222242e-03
 -1.5796417e-01
  9.0117403e-04
  7.1272533e-03
 -4.9649021e-01
  3.8868112e-03
 -9.2836425e-02
 -5.5956572e-01
 -5.7388693e-02
 -4.1826683e-01
 -3.6269087e-01
  3.2660922e-01
  1.6420615e-01
  1.4636627e-01
  1.5428540e-02
 -1.2305553e-02
 -7.4548513e-02
 -2.5913674e-02
 -5.3991906e-02
  3.0613754e-02
  9.4212316e-02
 -7.8868885e-03
 -3.6644754e-01
 -1.8413775e-01
 -1.3672355e+00
 -1.3282814e+00
  9.6618378e-01
 -3.1979594e-01
  4.1366175e-01
 -1.3114899e+00
 -8.1641734e-01
 -2.3029618e-01
 -5.2260303e-01
 -8.3335865e-01
 -5.7251298e-01
  1.2251567e+00
 -1.4151707e+00
 -1.5893447e+00
 -2.4814695e-01
  1.4084491e+00
  5.5809408e-01
  2.0706271e-01
  5.0679260e-01
  6.1662227e-01
 -1.6785551e+00
  1.3234910e+00
 -4.3624830e-01
  1.4172687e-02
  1.7259583e+00
  6.5223104e-01
 -1.1512829e-02
  1.9806268e-02
  1.4025418e-03
  1.4126129e-02
  5.9165522e-03
  4.9032592e-03
  6.5548189e-02
  2.4830088e-02
  6.9556376e-03
 -4.1567147e-04
  2.5182620e-03
  1.1537872e-03
  1.9288933e-02
 -9.3149431e-03
 -2.4424365e-03
  1.7202495e-02
  5.7153474e-04
  6.2353509e-03
  2.2729128e-03
 -3.4744322e-02
  6.1237332e-03
  6.6255187e-03
 -1.0257498e-02
 -3.4893855e-02
 -8.6973280e-02
  2.8060596e-02
  1.6553066e-03
 -6.4544368e-01
  6.1064204e-03
 -8.3339000e-03
  1.5729345e-02
 -1.4621549e-02
  9.2764542e-02
  1.2749021e-01
 -4.8094773e-01
  2.0064665e-02
 -4.3067563e-02
  4.2809784e-02
 -1.8184487e-03
  5.2068681e-03
 -1.6445771e-02
  3.9350428e-04
 -3.5209876e-02
  1.4376434e-03
  5.8593057e-02
  2.4844050e-02
 -1.9769521e-02
 -1.4312509e-02
  5.8250986e-02
  6.1971945e-01
  1.6353568e-02
 -5.0074328e-02
  6.3525150e-03
  2.1587615e+00
 -4.8389856e-02
  1.4581682e-02
 -2.3987293e-03
  6.0689067e-03
 -4.8201110e-02
  2.8758259e-02
  3.7187926e-02
  2.3481300e-02
 -1.3012711e-02
  5.9158853e-03
 -1.5465678e-03
 -2.0894553e-01
 -1.2776312e-04
 -1.6657715e-03
  2.0312799e-02
 -7.1589942e-03
 -3.5446577e-02
  6.3505437e-04
  1.8691026e-03
  5.0975019e-01
 -2.7512433e-04
  1.8905940e-02
  6.6677347e-04
 -7.5209662e-02
 -8.1260866e-03
  4.0235757e-03
  1.7682208e-02
  2.1863813e-02
  1.3805600e-02
 -6.2301648e-03
 -1.4524688e-02
 -1.1821982e-02
 -1.4220905e-02
 -1.4615065e-02
 -3.6289599e-02
  3.2232556e-02
 -1.0106070e-02
  7.3509037e-01
 -1.8502022e-01
  8.8444054e-01
 -2.0216702e-02
 -2.7636647e-01
  3.4427112e-01
  5.2202484e-03
  1.0471772e-04
 -1.5614805e-02
 -3.6796894e-02
 -6.9767749e-04
 -1.3812204e-01
  5.8538881e-03
  9.6643437e-03
  6.1361212e-03
  9.2347141e-04
 -2.1917485e-03
  6.6514477e-02
  1.0357853e+00
  9.1036881e-04
  1.3438262e-01
 -2.1926158e-03
 -1.8208239e-02
 -1.7764854e-03
 -1.7034443e-02
  2.5189532e-02
 -4.7551594e-03
 -1.0178755e-02
  2.9414594e-02
  3.2979439e-03
 -8.2376167e-02
 -1.1946993e-02
 -2.0766191e-02
 -3.1607926e-02
 -4.3577589e-03
  7.1924464e-03
  8.2866456e-03
 -1.0822135e-02
  4.4935688e-02
  1.4186234e-02
  6.0152650e-02
  4.6888720e-03
 -1.9008499e-02
  4.3257806e-02
  1.3839005e-03
  4.4373916e-03
  4.9605025e-03
 -9.6871899e-03
 -1.4201269e-02
 -1.4335437e-02
 -1.5219826e-02
 -8.4509226e-03
  2.2953192e-02
  6.9774706e-03
 -3.1480524e-03
 -2.7488745e-03
  1.4834404e-02
  3.5448384e-04
  6.5775462e-03
  9.2718285e-03
 -9.9774720e-03
 -8.8500082e-02
  6.0407035e-03
 -1.8216314e-03
 -6.6467132e-03
 -1.4679166e-02
  4.3585962e-03
  3.2397512e-02
 -1.0288407e-02
  3.1737259e-04
 -1.1509079e-02
 -1.5351425e-02
 -1.4848321e-03
  2.5937349e-02
  5.7089897e-03
  3.9268476e-03
 -3.2137663e-03
  1.4704883e-02
 -8.8544860e-03
 -1.9139849e-03
 -7.4526696e-03
  2.3405610e-03
  8.9926098e-04
 -1.7421827e-02
  6.2707532e-03
  1.4062066e-03
 -1.9793511e-04
  5.5248202e-03
  1.3818447e-02
  3.4361631e-03
 -5.2391115e-04
  1.1111576e-02
 -7.9826703e-03
 -4.5950711e-02
  1.0517053e-02
  2.8167412e-01
 -1.3503036e-02
 -1.5815470e-03
 -2.3312109e-02
 -4.7327932e-02
 -2.6545566e-02
 -1.3842663e-02
 -5.0976653e-02
 -1.5483118e-03
 -6.0482811e-02
 -3.3846553e-03
 -1.2717110e-02
  5.2274799e-01
  4.3398403e-02
 -2.0298837e-03
  1.2742750e-01
 -4.9851928e-03
 -1.2121328e-02
  5.4534087e-03
 -9.8794457e-03
  1.3480925e-02
 -1.4874675e-02
  4.9486734e-02
 -7.8937626e-03
 -1.9947649e-03
 -6.1393969e-02
 -2.3931158e-03
  1.5350847e-02
 -2.5348214e-03
 -3.0676242e-02
  1.8725151e-02
  3.6071902e-04
 -4.9856305e-03
 -3.0524381e-02
 -5.5961806e-01
  1.0906775e-02
 -4.8914582e-02
  7.6110554e-03
  3.3636710e-01
 -7.5924187e-03
  1.7238066e-02
 -1.9117219e-02
  1.0236375e-02
 -1.3728105e-03
  3.0479519e-02
 -3.1367958e-02
  1.6658736e-02
  1.9198001e-03
 -5.4740999e-04
  4.5105111e-02
  2.7400148e-04
 -1.6502747e-02
 -1.9180806e-02
  5.6535606e-03
 -1.5709149e-03
  4.7114673e-01
  5.8038943e-02
 -9.3148619e-01
 -3.3243967e-03
  3.1975913e-01
  1.7003737e-03
  4.8564433e-04
 -8.8961935e-03
  2.1472401e-03
 -1.0983743e-02
  1.6063998e-02
 -4.0433817e-02
 -5.0302125e-03
 -6.0891546e-03
 -4.7266772e-03
  2.1393849e-01
 -1.6730021e-01
 -1.5567374e-01
 -2.3745818e-02
  1.4052586e-02
  3.1333581e-01
  1.5289913e-02
  3.9857063e-02
  1.3599112e-02
 -2.1677818e-03
 -3.9493416e-02
  1.7265258e-02
 -8.9204293e-03
  2.2231997e-03
 -2.4897834e-02
 -6.9600372e-03
 -3.8916573e-03
  4.4007208e-03
  3.3549447e-02
 -5.6271530e-03
  3.4553877e-03
 -3.8953165e-03
  2.2355720e-02
 -8.0608974e-05
  2.9451449e-03
  5.7939131e-02
 -1.2093746e-02
 -6.1830273e-03
  1.9461669e-04
  2.5571682e-02
  1.2118150e-02
 -7.1450658e-02
  1.5687285e-02
  2.3396518e-03
  1.1135750e-02
 -8.6054299e-03
 -9.6820865e-04
 -1.9846039e-03
  8.8797342e-03
  4.1135849e-04
 -5.3119031e-03
  6.0820088e-02
  7.3122876e-03
  8.3894068e-03
  1.5810847e-01
  2.5446553e-02
  1.4680430e-03
 -1.3168357e-02
  2.5430513e-03
  3.4406401e-02
 -2.5085952e-02
 -2.0809060e-02
  6.0018776e-03
  2.0409400e-02
 -2.9941181e-02
  2.3043624e-03
 -3.5140716e-02
 -4.4826106e-03
  3.6082733e-02
 -5.6096069e-03
 -1.1878082e-03
 -1.3629848e-01
  3.2971376e-03
  1.7005010e-04
 -6.4460590e-02
 -1.1241044e-01
 -7.1238102e-03
  2.5535839e-02
 -1.3192569e-02
  1.8270280e-02
 -2.2969192e-02
 -1.7385171e-03
  1.2127175e-02
 -4.3470678e-03
  1.5229909e-02
 -4.8291292e-03
 -1.2673070e-02
 -2.3921549e-02
 -2.4078427e-02
 -2.7320206e-01
 -1.4589128e-02
 -7.3064718e-04
 -1.7658379e-02
  9.6764388e-03
  6.0694446e-03
  1.6089682e-02
 -3.9999839e-03
 -1.1748073e-02
 -1.5733982e-02
 -1.2796369e+00
 -2.4377048e-02
 -5.3240317e-03
 -4.5482200e-02
  1.8229967e+00
  1.3745525e-02
 -1.3120771e-02
  7.2983425e-04
  2.1217666e-03
 -2.5816070e-02
 -5.3107333e-03
  1.8873218e+00
  1.1733323e-02
  4.5325929e-01
 -5.7288799e-03
 -2.0339256e-02
 -2.4621418e-01
  5.9613120e-03
 -3.7150699e-01
  1.1523292e+00
 -5.9167790e-01
 -1.3840152e-01
 -1.2214090e-02
  6.7809713e-01
  2.4991110e-03
  1.4467457e-01
 -1.5069691e-02
 -2.7059969e-01
  5.8186042e-01
 -8.1397003e-01
 -1.9249387e+00
 -1.6053246e-03
  7.2330902e-03
 -9.2700356e-01
 -1.8508971e+00
 -1.6262145e-04
  3.1791592e-01
 -3.5219592e-01
 -4.6899062e-01
  4.6491344e-03
  1.0789466e-01
  5.6484157e-01
 -3.3260833e-02
 -5.0333393e-01
  7.9301512e-03
 -3.0862201e-02
  1.4330818e-03
 -1.2210328e-02
  2.5489125e-03
  1.3656588e-01
  4.4847161e-02
 -4.1225860e-03
 -2.9947711e-02
  2.8844234e-03
 -1.3200590e-02
  1.8924428e-02
  6.1144419e-03
  3.3902233e-03
  9.1836657e-03
  2.0475002e-02
  7.7268621e-03
  3.9314390e-03
 -7.0706550e-03
  1.3323209e-02
  2.9874633e-03
 -4.2597651e-03
 -3.1132123e-03
 -1.9676713e-02
  6.2124324e-03
  9.7697566e-04
  1.6198814e-02
 -8.3382148e-04
  1.8594779e-02
  3.6533275e-03
 -3.5648149e-02
  3.6694924e-03
 -1.0957891e-03
 -9.4540277e-03
 -4.2834999e-03
 -1.1802224e-03
  1.8482631e+00
  2.5556898e-03
 -2.8019857e-02
 -1.6710481e-02
  1.0648271e-02
 -4.9359654e-03
  1.3171529e-03
 -2.3671610e-03
 -7.1968138e-03
 -4.2750083e-02
  2.9684879e-02
  3.8856227e-02
  2.0728720e-02
  1.7804176e-02
  4.8055602e-03
 -4.6145171e-01
 -3.9641806e-03
  8.3492622e-03
  5.3932322e-03
 -4.9248324e-03
  2.2132251e-02
  5.8289263e-03
 -1.1469448e-02
  6.2896525e-03
 -2.6457451e-02
  1.0003881e-02
  7.2047973e-01
 -9.4072890e-01
 -1.8027997e+00
  1.8267825e-02
 -1.1854991e+00
 -5.1378462e-02
  2.7130923e-01
  1.0369835e-01
  4.9659792e-01
 -1.3295227e+00
 -3.5294166e-01
  1.7893642e-01
  2.4276544e-01
  6.4163767e-03
 -1.8481384e-01
 -6.3230984e-02
 -5.3061962e-02
  3.1764844e-01
  7.1336024e-02
 -2.2373344e-01
 -9.1036636e-01
 -2.5658950e-01
  2.6646969e-01
  1.9894956e+00
 -8.2685471e-02
  2.2490902e-02
 -5.3581893e-03
  9.4865161e-01
  4.2339698e-03
 -1.1394600e-02
 -2.4327751e-02
  4.9103277e-05
  9.6286293e-03
  1.4218746e-02
  9.8473340e-02
 -1.5430229e-02
 -1.6646694e-02
  3.1557426e-02
  7.3646396e-02
 -2.3694355e-03
 -6.8110088e-03
  7.9407059e-03
  3.7453310e-03
 -2.1929184e-02
 -2.7834756e-02
  1.0827597e-02
  1.9149917e-04
 -4.3021441e-03
  1.4941306e-02
  1.4706617e-02
 -5.8332421e-03
  1.5088487e-02
 -2.6059878e-01
  3.6493152e-02
  9.3022160e-02
  2.9815203e-02
 -8.3304405e-01
 -9.3444367e-04
  2.1598865e-03
  1.7251076e-02
  1.8610778e-01
 -4.3312478e-01
  3.2698542e-01
  1.6339266e+00
 -1.1954604e+00
 -1.7109740e-01
 -1.3483461e-03
 -3.2236558e-01
  4.4312987e-01
  6.8948502e-03
 -4.4099107e-01
 -1.4006840e-03
 -1.1437452e+00
 -7.0628726e-01
 -7.1573609e-01
  3.2335746e-03
  2.3228027e-01
 -6.9985166e-02
 -1.1162666e+00
 -7.7072841e-01
 -8.7467706e-01
 -2.6636985e-01
  4.2920988e-02
 -3.1325859e-01
 -3.1438696e-01
 -5.6500185e-02
  4.4562118e-03
 -1.7149729e-01
 -3.9919507e-02
 -2.8378230e-01
  7.9031020e-01
 -1.0369396e+00
 -2.5079659e-01
 -1.7610289e-01
  2.4291493e-01
  3.7093204e-01
  1.9234436e-02
  1.0372020e+00
 -8.7396193e-01
 -3.2207713e-01
  2.3431959e+00
  5.2170056e-01
 -4.2561617e-01
  1.2347813e+00
 -9.6506566e-01
 -2.6004794e-01
 -1.1169786e+00
 -2.1448886e+00
  1.6651231e+00
  3.8074970e-03
  9.2067903e-01
 -4.4434808e-02
 -4.2033967e-01
  1.0654104e+00
  3.5139707e-01
  1.5081549e-01
 -3.0529279e-01
  1.9603008e+00
  1.7340277e-01
  1.3449191e+00
  1.6254561e-02
 -2.0558532e-02
  2.4691292e-03
 -6.2452909e-02
 -3.4547843e-02
  1.4638203e-02
  1.4472547e-02
 -5.7282031e-01
 -8.6691463e-03
 -7.2855214e-03
  2.4830182e+00
 -6.6189892e-03
 -1.0462848e-03
 -3.4179844e-02
 -4.8878985e-03
 -5.9642219e-03
 -1.6708208e-02
  7.0505892e-04
  1.8958608e-02
 -3.3037870e-03
  1.0237190e-03
  2.9859610e-03
  1.0508431e-02
  1.2961907e-02
 -5.1917326e-02
  3.7749081e-03
  6.1188839e-02
 -6.6516134e-03
  2.1163991e-03
 -4.0902849e-02
  2.2733638e-02
 -1.5517728e-03
  1.1309678e-02
  1.4100524e-02
  2.6836233e-02
 -3.7948072e-02
 -5.4673855e-03
  5.8283322e-02
 -2.6973823e-02
 -1.2686719e-02
 -2.7574649e-02
 -1.1662745e-01
  5.1037483e-03
 -6.7597054e-02
  1.9183984e-02
 -6.8590073e-03
  1.5250990e-01
 -3.1912234e-01
 -2.0899197e-01
 -2.4510783e-01
  8.8546043e-03
 -2.4906710e-01
  1.9857971e-01
 -1.1255234e-01
  3.8268244e-01
 -2.9332414e-02
  3.7135255e-02
 -2.7774101e-01
 -2.6247824e-02
  4.7720771e-02
 -1.4707206e-02
  1.0021476e+00
  1.2371540e+00
  6.7311118e-04
  1.5834411e+00
 -1.6505782e-01
  1.1497342e-01
  5.8006984e-01
  6.2163323e-01
 -1.7079368e-01
 -3.7190759e-01
  2.9248588e-02
 -1.3698995e+00
  2.9924747e-01
 -5.6541091e-01
 -1.3061349e+00
  6.1323297e-01
  1.3651022e-01
  2.3888227e-01
  5.9861815e-01
 -7.2909468e-01
  3.6412096e-01
  9.8610252e-02
  5.2721596e-01
  5.6517798e-01
 -4.9850987e-03
 -3.8124439e-01
  8.1927729e-01
  4.6114285e-02
  5.5692602e-02
  3.1727239e-01
 -1.4482864e+00
 -2.6513156e-01
  5.3170215e-02
 -1.2829992e-01
 -5.6834076e-02
 -5.4327959e-01
  1.4911315e+00
  7.9159975e-02
  1.9817218e-01
  2.9564591e-02
 -6.3665390e-01
  5.4780805e-01
 -1.6076809e+00
  1.2262139e-01
  8.7513196e-01
  1.0069127e-01
 -2.3560964e-01
 -6.1009872e-01
 -1.7167501e-01
 -6.5743834e-02
 -1.6714802e-01
 -4.9686294e-02
 -1.2101562e+00
  2.0223249e-01
 -3.4633256e-02
  3.0104151e-01
 -9.3956888e-01
 -4.0359991e-03
 -4.9783517e-02
 -3.9791995e-01
 -8.8737363e-01
 -2.1639751e-01
  1.0256561e+00
 -1.6798751e-01
 -3.4630194e-01
  2.0528139e-01
  1.4414936e-01
 -8.3371758e-02
 -2.2030797e+00
  9.3896043e-01
  6.7394024e-01
 -4.1250131e-01
 -1.2023332e+00
 -1.2292560e+00
 -2.6466386e+00
 -6.4650011e-01
 -9.9016970e-01
  2.0395968e+00
  5.4443932e-01
 -3.8014036e-01
 -5.0265372e-01
 -1.0429047e+00
  7.0509002e-02
  7.5282669e-01
  4.5621242e-02
 -1.5060892e+00
  1.1863174e+00
  8.5259028e-02
 -4.6149030e-01
 -2.8229409e-03
  5.4831621e-03
 -1.5466201e-02
  6.1889901e-03
  5.1430915e-04
  1.9484052e-02
 -2.9090596e-02
 -4.3931799e-03
  2.0083833e-02
 -3.6065159e-03
 -8.8321669e-03
  3.2068752e-02
 -5.5668554e-03
 -1.5746184e-02
 -2.9486546e-03
 -1.4860603e-03
 -1.4863655e-02
  8.0615795e-01
 -3.5354814e-03
  5.1181544e-02
  2.1923645e-03
  3.0805359e-02
 -8.5963320e-04
 -4.4310112e-03
 -1.8987792e-02
 -1.5171970e-02
  1.2085621e-02
 -3.3598521e-03
 -1.0369187e-02
 -3.2394849e-02
  1.4820280e-02
  1.9228688e-02
  2.9982715e-03
  2.3021672e-03
 -3.3974323e-02
  8.5228449e-03
 -4.2995960e-03
 -2.7009614e-02
  1.4960052e-02
  6.0968649e-02
  9.4240205e-03
  1.0471125e-02
 -9.2155505e-03
  5.6885425e-03
  4.3467018e-03
  5.2186856e-03
  9.7151811e-04
  2.1467699e-02
 -3.0351946e-02
  4.5926282e-03
  9.9137938e-03
  1.8816451e-02
 -2.4469225e-01
  8.0649974e-03
  3.4472027e-03
  1.8731488e-02
  2.8979829e-02
  1.8755542e-02
 -1.6881071e-02
 -6.7277127e-03
  4.0821124e-02
  5.7483960e-02
 -1.2066071e-02
 -2.4838245e-02
  2.2696078e-02
  1.3918602e-03
  2.2878934e-02
  1.1522236e-02
  5.8472425e-02
 -3.8267800e-01
  1.3381400e-03
  1.0756749e-03
  1.1030505e-02
  5.8099393e-02
 -5.5932973e-02
 -1.7020945e-02
  4.4182795e-03
 -2.5954496e-02
  6.0633880e-01
  6.3121640e-03
 -5.3253386e-02
 -3.0825565e-02
 -2.7951021e-03
 -1.4183881e-02
 -4.3062738e-01
  5.4812536e-04
 -8.6625051e-03
  3.1511414e-01
  8.6007260e-02
  2.4002122e-03
 -1.7734390e-02
 -3.3098059e-03
  1.7322099e-02
 -9.0382172e-04
  1.7844639e-03
  1.6854633e-02
  7.0743971e-03
  1.4286282e-02
 -1.7958427e-02
  1.6877837e-02
 -2.0761653e-03
 -2.4638241e-03
 -1.1020942e-02
 -1.7659374e-02
  6.2357113e-03
 -1.6642528e-02
 -3.1062076e-02
  1.0737990e-02
 -1.3358709e-02
  7.1684658e-03
 -1.4626968e-03
  8.2936855e-03
 -2.8811118e-03
 -1.7998017e-02
  7.4521829e-03
 -1.9336589e-02
 -4.0749898e-03
 -3.1926707e-04
  1.1594954e-02
 -4.1268252e-02
 -8.9696455e-01
 -8.2194984e-01
  2.4078692e-01
  1.5100014e-03
 -2.4008621e-01
  7.0114839e-03
  2.6522236e-04
  4.4424091e-03
  1.8786861e-03
  4.5651098e-04
  1.9266272e-02
  3.6949203e-03
  5.5861054e-03
 -3.9773881e-01
 -5.1715327e-03
 -3.0321942e-03
  1.2553647e-02
  9.0648517e-02
 -6.5726377e-03
 -1.9919671e-04
  1.1523856e-02
  6.9702461e-02
  1.0596554e+00
 -4.4247978e-03
 -1.2617534e-02
 -1.2311441e-02
  1.8149527e-02
 -7.4916512e-02
 -2.1891084e-02
 -5.0584278e-03
  3.3243217e-02
  1.9491827e-02
 -1.2915267e-02
  1.5455191e-02
  4.9948390e-03
 -6.2243082e-03
  3.8433629e-03
 -6.8447109e-05
  1.1552051e-02
  3.3430833e-02
 -4.7673285e-04
 -8.4027462e-03
 -1.3176166e-02
 -4.3571435e-02
 -2.5238771e-02
 -9.9763172e-05
 -4.5016520e-03
 -7.6035140e-03
  8.9862915e-03
  4.6786545e-03
  3.4552955e-03
  1.3485238e-02
  1.5875554e-03
 -4.6367627e-03
 -5.3429687e-01
  9.9763190e-03
 -2.7147442e-01
  1.4083933e-02
  2.7893908e-02
 -5.2429275e-03
 -2.0192365e-01
  7.5007492e-01
  4.7963759e-01
 -4.1959974e-01
  4.6609867e-01
 -3.0248931e-01
 -2.6657913e-02
 -2.9920850e+00
  9.0425920e-01
  1.2121631e-02
 -4.0492010e-01
 -4.2402858e-01
 -5.3623343e-01
  3.3299251e+00
 -2.1237792e-01
  1.2459654e-01
 -1.4796293e+00
 -7.7083337e-01
  1.3781491e-01
  1.8963243e+00
  3.5961874e-02
  1.2309204e+00
  3.6225846e-01
  6.2246177e-02
 -8.3455347e-02
  2.8711122e-01
 -9.9696976e-01
  9.5814383e-01
  9.3091272e-02
  3.3143368e-01
  2.4738568e-01
 -6.1472201e-01
 -8.5445738e-01
  2.0053135e-01
 -8.5082275e-01
  8.3425665e-01
  2.3907118e-01
  2.2115375e-01
  7.7777916e-01
 -3.3683220e-01
  3.4275729e-02
  3.7668350e-01
 -7.2080261e-01
  4.4535875e-01
 -1.5128751e-01
  5.5893904e-01
 -8.8213682e-01
  2.3362866e-01
  3.5229498e-01
  6.9899070e-01
 -5.0991577e-01
 -1.8327202e+00
 -1.0005693e+00
 -1.2091695e+00
  8.6471719e-01
  2.5771094e-02
 -8.3436497e-02
  9.7792119e-01
  8.2810387e-02
  6.5974139e-02
 -9.8924476e-01
  4.5288029e-01
 -6.3661408e-01
 -4.3317012e-02
  1.7519912e-01
  3.1942710e-01
 -1.1224854e-02
  5.4326725e-01
  2.0253603e-01
 -4.7834154e-02
  3.0502871e-01
  7.6480590e-02
  1.7529521e-02
  1.6293868e-01
  4.0397979e-03
  2.2422241e-02
 -1.0050665e+00
  2.1248642e-01
  1.3013215e+00
  2.0873917e-03
  1.0233891e+00
 -1.6210714e-02
  1.9756117e-01
 -6.2769726e-02
  5.8399844e-01
 -2.3593334e-03
  8.4786676e-03
  4.5665003e-02
  2.9717919e-03
 -8.8539924e-03
  1.8604077e-02
 -2.0205157e-02
  2.8207526e-02
 -1.1826354e-02
 -3.5528759e-03
  1.4627135e-02
  1.7013056e-02
 -9.0062264e-03
 -2.0711585e-03
 -9.7146397e-03
  5.7198354e-03
  8.9659188e-03
 -4.7855102e-02
 -3.0158754e-02
 -1.0720950e-02
 -1.1929054e-02
  5.3916955e-03
 -3.5466596e-03
 -1.4405096e-02
 -1.8128835e-02
  1.5079189e-02
  3.9772154e-03
  2.5544006e-02
 -1.0157909e-03
 -9.3305437e-03
  5.5304375e-03
 -4.7507356e-03
 -8.7060835e-03
  2.2617986e-02
 -8.8765463e-03
 -1.0548738e+00
 -5.5386156e-02
  1.0337746e+00
  1.3457219e-03
 -1.1662121e-02
  6.1734086e-01
  6.3422717e-02
  6.3300557e-02
  2.3162679e-01
 -4.2918304e-01
  1.5615276e-01
  8.3606876e-02
 -2.9431369e-02
  1.9252519e-01
 -1.5589835e-01
  7.3978387e-02
 -3.5551456e-03
  7.8820445e-02
  9.2049360e-02
 -1.1745484e-03
 -1.2372439e-01
  2.1670574e-02
  1.9581702e-02
  2.5044885e-03
 -1.0391014e-02
  1.8861338e-01
 -6.1043674e-01
  8.9816850e-01
  2.7006006e-02
  1.4079490e-02
  1.0187241e+00
 -6.1201438e-02
 -7.0083994e-01
  1.9655939e-02
  2.0615818e-02
  1.3031512e-01
 -1.5327170e-02
 -2.4227088e-02
  8.5841501e-03
 -1.8649596e-03
 -6.9801621e-03
 -3.6895961e-02
 -1.4383495e-03
 -1.9148752e-01
  5.6154571e-02
  1.7049091e-02
  8.1738539e-02
 -1.0442868e-02
 -5.8595508e-01
 -7.7848983e-01
  6.2920056e-02
  1.1422457e-01
 -4.3540444e-02
 -6.3584067e-02
  1.7202371e-03
 -6.5406119e-03
  7.6699026e-02
 -6.1398792e-01
 -7.2454646e-02
 -5.1077180e-02
  1.7800303e-01
 -1.5515344e+00
 -1.2328770e+00
  8.7780869e-01
  1.1927408e-02
 -9.8531894e-02
 -2.1546340e-02
 -1.7506177e+00
  2.1277630e+00
 -3.3857219e-02
  1.6421558e-02
  2.6317492e-01
 -1.1688589e+00
  3.9059471e-03
 -7.6361257e-01
  1.1448261e+00
  1.5354108e+00
  3.0264479e-01
 -2.0891558e-01
 -5.4843156e-03
 -1.7455192e-01
  6.5444253e-02
  2.2674562e-01
 -5.0028181e-01
 -2.3205154e-02
  1.9599434e+00
 -9.5991349e-01
  2.3172261e-02
  3.8143918e-02
 -7.9343939e-01
 -1.1516821e+00
  1.0285832e+00
 -5.0538806e-03
  1.2148503e-02
  1.1740262e-02
 -5.1097903e-02
 -1.0784836e-02
  5.7108160e-02
 -1.1793159e-02
  2.2275167e-02
  7.1386071e-03
  2.0298224e-04
  5.5061406e-03
 -4.0817158e-03
 -2.0837653e-02
 -2.2722892e-02
 -7.5967484e-03
  1.9011276e-02
  2.1801811e-02
 -6.7311302e-03
 -5.9615418e-02
  1.2343770e-03
  1.0224632e-01
  8.2412623e-02
  1.1535684e-01
  1.1850116e+00
  8.9968871e-03
  8.5871702e-04
 -1.3163490e-03
 -1.0445102e-02
  1.2953195e-02
 -1.6637700e-02
 -7.3775905e-04
 -1.2196153e-02
  4.8264507e-03
 -7.5695636e-03
 -1.2055161e-02
 -1.2936691e-02
 -2.2836216e-02
 -5.9115235e-03
  4.8187515e-03
  5.8610295e-03
  1.3328687e-02
  4.5062886e-03
 -1.3634969e-02
  2.1176869e-03
  1.3405368e-02
 -2.4539209e-03
  2.5208412e-02
 -3.3826013e-03
  4.5182505e-03
 -3.3543869e-03
 -1.5807722e-02
 -5.6041256e-03
 -7.2495341e-03
 -9.4557656e-03
 -7.0656941e-05
 -1.7708845e-02
  4.1537369e-03
 -1.5645368e-02
 -1.1572520e-01
  4.4655219e-02
  3.5778008e-02
  1.7652819e-02
  1.1933941e-03
 -1.7854526e-03
  2.0027606e-02
 -1.3339581e-02
  7.0192257e-04
 -4.5307982e-04
  1.3942874e-02
  1.2244769e-02
 -3.0532841e-02
 -3.2121796e-02
  2.4604838e-02
  3.5141185e-02
 -4.3837376e-02
  7.0204283e-04
 -5.7390938e-03
 -2.4420545e-02
 -9.5946556e-03
  2.4243841e-02
 -1.7234773e-03
  1.6063886e-02
  2.4247931e-02
 -1.6771553e-02
 -1.2765483e-03
  3.0959681e-02
  1.4125928e-03
  2.6617560e-03
  8.0461249e-02
 -7.5923216e-01
  2.8160742e-01
  3.3869877e-01
  6.1234599e-01
  1.2956908e-02
 -2.3709549e-01
 -2.0791291e-01
 -6.3380159e-02
  6.2604833e-01
 -5.2318547e-04
  4.2985119e-02
  1.9738735e-01
 -1.8364783e-01
 -1.8221254e-03
 -3.5968881e-02
 -3.6308475e-02
  3.1197018e-03
 -3.4765486e-02
  7.0556611e-02
  1.1963779e-02
 -2.3281906e-04
 -1.6313387e-01
 -5.1693555e-02
  5.0326180e-01
 -4.8392457e-03
  1.6499409e-02
 -8.1454825e-01
 -8.7666534e-02
  3.4791166e-03
 -4.8002512e-03
  6.6123915e-01
  2.6013546e-02
  1.4642651e-02
  5.3057678e-02
 -1.4458034e-02
 -1.5823878e-03
  2.4181912e-03
  1.4592862e-01
  8.8248797e-02
 -2.8816564e-02
 -7.9783790e-02
  9.1686368e-02
 -2.1285538e-02
  5.4913502e-02
  1.4771276e-02
  2.3557590e-02
  4.7140427e-02
 -1.9764872e-03
  1.0277750e-02
  1.7434219e-02
 -1.5962407e-02
 -7.6389506e-02
 -5.4456340e-03
  4.7674935e-02
 -5.1503587e-03
  6.6168588e-03
 -8.7828590e-03
 -6.2062251e-03
  7.5749224e-03
  3.2326416e-03
 -4.5819514e-04
 -3.1104577e-03
  1.6141750e-02
  2.5550092e-03
  8.5187657e-03
  2.9427509e-03
  1.2237970e-02
  2.2025419e-02
  1.2458469e-03
 -5.3599663e-03
  3.2010287e-02
 -1.0292963e-04
 -2.5115678e-02
  6.4403443e-03
 -1.4239061e-03
  1.2038669e-02
  3.8086131e-02
 -4.4055833e-03
 -1.0066453e-02
 -1.3812081e-03
 -2.3884559e-02
 -1.8524764e-02
  1.0476447e-02
 -8.4645115e-03
 -9.4154878e-03
 -2.6385114e-02
 -1.1131362e-02
 -2.9934835e-02
  2.9054354e-03
  8.0419210e-05
 -1.5550623e-02
 -1.0820594e+00
  3.4726575e-02
 -8.5332406e-01
 -2.4086730e-01
 -2.1058762e-02
  2.0943353e-01
  1.7758703e-01
 -4.2887345e-01
 -1.9529897e+00
 -3.4363961e-03
  4.1639113e-01
 -2.3094031e-01
  1.3341827e-02
 -2.9461558e-03
  1.0309093e-02
  5.8569068e-01
 -2.8756222e-01
 -1.1517411e-01
  3.9893959e-02
 -1.6818644e-01
  5.0495680e-02
 -1.2100121e+00
 -3.4786800e-01
  2.8743573e-02
  1.0463448e+00
  5.2194718e-02
  3.2740217e-03
 -1.4949836e-02
 -1.1061585e-02
 -1.6038984e-01
  5.6807363e-01
  1.5716407e-01
 -7.5639194e-01
  8.3727020e-01
 -1.7223692e-02
 -3.4273988e-01
  6.9712669e-01
 -7.1760666e-01
  1.2246950e+00
  1.9996876e-02
 -5.4990961e-03
  4.4391397e-01
  9.5247524e-03
 -1.0905124e-01
 -2.9303214e-02
  1.0609821e+00
  6.4558762e-01
  5.0237465e-01
 -7.3256016e-02
  9.1120261e-01
 -5.5977702e-01
  5.8618563e-01
  1.7010154e-01
 -3.8665989e-03
 -3.2336738e-02
 -6.4099121e-01
 -3.3676416e-01
 -5.2261725e-03
  2.2507453e-01
  6.9724768e-01
  4.4347045e-01
  1.7074069e-01
 -7.4090225e-01
 -5.2145028e-01
  1.2452024e+00
 -3.1245014e-01
 -1.4299163e+00
  2.1488783e+00
  1.6444786e-01
  2.3434440e-02
 -2.5286198e+00
 -1.9077028e+00
  1.7080961e+00
 -3.4458835e-02
  4.3949762e-01
 -2.3058879e+00
 -6.0216564e-01
  1.0634356e+00
 -5.3512719e-02
  9.0957022e-01
 -2.4426191e-01
 -7.4417228e-01
  1.3632084e-01
 -2.7584841e-02
 -1.8368248e-02
  3.2243067e-01
 -4.9753815e-01
  4.3175423e-01
 -2.4771221e-02
 -5.6745443e-03
 -8.3397636e-03
 -8.7545626e-03
  1.3491776e-02
  7.2148601e-03
  3.8143273e-02
 -9.1457935e-03
  1.5173807e-02
 -9.0036076e-03
 -7.1198991e-03
 -6.8344288e-03
  2.9101111e-03
 -8.3592711e-03
  1.1704800e-02
  1.5721291e-02
 -2.2672148e-02
 -5.6757703e-03
 -6.0918933e-04
 -1.6874333e-03
  9.2302142e-03
  1.3452431e-03
  2.8788233e-03
 -3.5031296e-02
 -4.0825531e-03
  7.5958535e-02
  1.5251175e+00
 -8.1890710e-03
  3.8380329e-03
  1.7382295e-03
 -1.2488709e-02
  2.1921502e-02
  5.4161251e-02
  9.1103315e-02
 -1.6626291e-02
 -3.2700677e-03
 -3.2858902e-03
  2.4032259e-02
 -4.3855298e-02
 -1.7040784e-02
  2.0326211e-03
  7.6480238e-03
 -1.4342366e-02
  1.2875244e-02
 -5.7796920e-03
 -2.3348352e-02
 -8.9760628e-03
  9.2333555e-03
  1.0300072e-02
  2.4156520e-02
  1.0303454e-02
  1.2963169e-02
  7.6417150e-03
  5.1137796e-03
 -4.5482349e-02
  4.0125465e-03
  2.9177560e-02
  3.1275363e-03
  2.5114086e-02
 -1.5956474e-02
 -9.3526699e-02
  4.4644088e-01
 -1.7057714e-01
 -3.7605765e-01
 -2.8661659e-01
  4.9900556e-01
  1.1181882e-01
 -1.3347267e-01
  3.5213452e-02
  1.5662394e-02
  9.0805463e-02
 -7.4470113e-04
 -9.3588310e-01
  7.5954832e-03
  1.8243616e-02
 -2.2078384e-02
  2.5782476e-03
 -6.6694543e-03
  3.5284061e-02
  9.5719360e-02
 -1.3499418e-01
  1.9213117e-03
  1.8409826e-01
 -2.9624665e-01
  3.0019343e-01
 -4.3213447e-03
  7.5237746e-03
  1.4691664e-02
 -3.0745824e-03
 -1.2193029e-03
 -8.7864232e-01
 -1.8703311e-03
 -7.5661344e-04
  7.4476805e-03
 -1.5307300e-02
  2.8425062e-03
  1.1775460e-02
  5.2665877e-03
 -7.9279710e-03
  2.1217434e-02
  3.8113261e-03
  2.7954502e-02
  1.0970564e-03
 -2.5557492e-02
  3.0868303e-03
  2.3767406e-03
  4.2447061e-03
 -6.3621453e-03
 -5.0615486e-02
 -5.4259133e-03
  1.8841963e-02
  1.2997913e-03
  6.1598117e-03
  1.9418137e-02
  1.4943578e-02
  1.4957037e-02
 -2.3188543e-02
 -1.4800477e-02
  9.7427589e-01
 -4.5216447e-03
 -3.0381381e-04
 -4.3941658e-02
 -6.4891619e-03
 -4.0304527e-01
 -3.0196186e-03
 -1.8372107e-02
  1.4395032e-02
 -8.4807929e-03
  1.8597504e-02
 -6.8077962e-03
 -1.9087061e-02
  4.8843294e-02
  3.7941423e-03
 -1.8723378e-02
  6.0560801e-03
 -2.9180361e-02
 -5.9776711e-03
 -3.7499577e-02
  1.3623347e-02
 -2.3104265e-02
 -3.2286830e-02
  7.5165206e-03
  3.4060818e-03
 -3.4136602e-03
  2.3251472e-02
 -2.7167469e-02
  6.3508953e-04
  9.6920934e-03
 -8.5949302e-02
 -1.3330634e-03
  2.8590482e-01
 -9.2748338e-03
 -6.5340745e-01
  5.7727486e-01
  1.5532608e+00
  1.9987674e-02
  1.0597214e-01
  1.9949460e-03
 -1.3432605e-02
  6.1178531e-02
  1.1989411e-02
 -5.9795864e-03
  2.1960552e-01
  5.2888482e-03
  1.3500398e-02
  1.5599016e-02
 -1.5146744e-02
  1.0330305e-02
 -2.2662196e+00
  1.1319087e-02
 -2.9503565e-02
  2.4700318e-02
  4.9505889e-02
 -8.6971391e-03
 -7.7870693e-03
  2.0742921e-02
  5.3729407e-02
  2.4672944e-02
  4.6261203e-02
 -9.3953015e-04
  3.4738172e-02
 -4.4910359e-01
  1.6069523e-01
  1.9717790e-01
  4.5675918e-02
  3.6957320e-02
 -6.7740805e-02
  2.1525198e-03
 -1.2010272e-02
  9.3505476e-03
  1.7203975e-02
 -5.8532014e-02
  5.1744878e-01
  4.3881737e-02
 -2.6931468e-02
 -1.3408455e-02
 -6.8764933e-03
 -1.2044354e-02
  7.7944431e-03
 -2.2355955e-02
  1.1068817e-01
  1.8197345e-02
 -3.1263940e-02
 -6.4372821e-03
 -1.6465831e-01
 -1.2358238e-02
  6.4331871e-03
  8.5728876e-03
  3.7380427e-02
 -1.5310032e-02
 -3.1637787e-03
 -1.5509473e-02
  1.2011723e-02
  1.3274547e-02
  1.6186576e-03
 -1.3093418e-02
  1.7031746e-02
 -6.7968033e-03
  4.9087023e-03
 -1.3748256e-02
 -8.4902942e-03
  1.1804772e-02
 -1.0223401e-01
 -3.5011228e-02
 -1.8834412e-02
  9.5381131e-03
  4.7518960e-03
 -8.6635863e-03
 -6.3033942e-03
  3.2817817e-03
  1.2296191e-02
 -4.0063420e-03
  2.0277379e-03
  9.0313433e-03
 -3.3475521e-03
 -5.6613865e-03
  1.5739918e-02
 -7.7150436e-03
  2.2837971e-03
 -2.9412979e-02
  3.7904622e-03
  2.6319411e-02
 -3.2777241e-03
 -1.3524176e-02
 -4.3526730e-03
  3.2202764e-03
  4.9562767e-02
  3.1073806e-03
 -2.6062217e-02
  5.7362448e-03
  8.6732564e-04
 -3.1517502e-03
 -1.5703686e-02
  4.2811176e-03
  2.9399968e-03
 -5.4307627e-03
  5.8547745e-04
  4.4873166e-03
 -1.9584040e-03
 -5.9687840e-03
 -2.9095606e-04
 -7.5772512e-03
 -1.6278893e-01
 -3.4254678e-03
 -2.7542782e-03
  2.6783757e-02
 -3.7146773e-02
 -4.9728467e-03
  1.1169864e-02
  7.9868864e-03
  1.9016419e-02
 -5.0748754e-02
 -9.0868870e-04
 -1.4126714e-02
 -1.7333336e-02
  4.1306365e-02
 -4.5305202e-03
 -1.6332957e-03
  1.0502294e-02
 -1.3145554e-02
  7.1792630e-03
  4.2151231e-03
 -3.9777935e-02
  2.8512557e-03
 -2.4717968e-02
  3.1343106e-02
  1.1623897e-02
  7.1368068e-03
  7.1156994e-03
  2.2803077e-02
 -9.1183027e-03
 -9.4906250e-03
  1.0250694e-03
 -2.5578275e-02
 -8.9493208e-03
  2.1546364e-03
 -1.0773821e-02
 -2.9619662e-03
  1.4507216e-02
  7.1955682e-03
 -1.8777223e-02
  1.0225064e-02
 -7.0356317e-03
 -5.2313511e-03
 -8.3976216e-04
 -2.1488359e-02
 -1.0022486e-02
  4.6784680e-02
 -1.4979834e-02
  1.6469013e-02
  3.8764143e-04
  6.9840631e-04
 -1.3571278e-02
  8.3640572e-03
 -3.2318633e-03
 -2.8786294e-03
 -1.3366422e-02
  7.2234939e-03
  3.1855807e-02
 -9.5185235e-02
  4.2575505e-02
  6.1329785e-03
  1.0928580e-02
 -1.3026505e-02
  1.2115968e-02
 -3.1177802e-03
 -1.5297798e-02
  3.1605843e-02
 -8.9390181e-02
 -1.0627510e-02
  3.6943918e-01
 -5.0999820e-01
  2.6303685e-01
  5.2214432e-01
 -8.9941896e-05
  8.2020956e-01
  8.3917100e-03
 -3.1852686e-01
 -5.3176671e-01
  5.4840376e-03
  4.4158077e-01
  1.0158652e-01
 -2.7032350e-03
 -2.3370078e-02
  2.4198521e-02
  4.4552073e-02
  8.2061321e-02
 -1.6163643e-02
  5.1761135e-02
  3.1795908e-02
  1.3078141e-01
  1.1050827e-02
 -2.6908138e-01
  1.1747219e-01
  2.7939832e-02
  6.9425690e-01
 -3.5629978e-03
 -7.3760837e-01
 -1.8977473e-02
  7.5672176e-03
  8.9403242e-02
 -7.1765319e-03
 -1.3690267e-02
  1.1131363e-02
  2.8764443e-02
  3.8491998e-02
 -1.6666914e-03
  1.3449200e-02
 -8.9203197e-05
 -1.9421410e-02
 -1.4287027e-02
 -1.8635798e-02
 -6.8652718e-03
  3.0820357e-02
 -4.7336742e-03
  6.6306401e-04
  2.8018158e-02
 -7.6448009e-04
  1.8401869e-02
  3.1521238e-02
 -1.4649048e-02
 -2.0378469e-02
  4.5593982e-03
  3.8236447e-03
 -3.4578212e-02
 -1.3219687e-02
 -6.8325205e-03
 -3.5107791e-02
  2.1786054e-03
 -2.6150670e-02
 -5.5146576e-03
 -2.3681149e-02
  4.4893883e-03
 -3.1044565e-03
  2.1233996e-02
  6.2452229e-03
  7.5329695e-04
  4.3694037e-03
  8.3475560e-03
 -8.2176002e-03
  3.7406933e-02
  1.6005012e-03
  5.0252147e-02
  1.7696161e-02
  3.0947808e-02
 -2.7190046e-03
 -2.1652851e-02
 -8.8369530e-03
  1.7861033e-02
 -5.3746155e-03
 -6.9696461e-03
  2.8561444e-03
  3.7419397e-02
 -4.0939739e-03
  1.3589434e-01
 -2.0696001e-02
 -1.6631054e-02
  1.3223714e-03
 -1.6974969e-03
  9.1082416e-03
  1.2067721e+00
  9.3565769e-03
  1.6159987e-03
 -2.3114686e-03
 -1.9564250e-02
 -1.3916906e-02
  1.2815281e-02
  5.9955521e-03
  2.0480337e-02
  1.0622936e-01
  7.8115519e-03
  1.5553494e-02
  1.1436033e-02
  1.9250922e-02
  2.6207382e-02
 -3.3211317e-03
  3.0107424e-04
 -4.3745243e-04
 -4.0479076e-01
  3.3533532e-02
 -2.0019589e-01
 -2.1973992e-02
  8.0646258e-03
  4.7891154e-03
  2.5836568e-02
 -1.8749674e-03
 -1.1225811e-01
  2.2746634e-03
 -2.3241998e-03
 -3.7830845e-02
 -6.1149828e-02
 -1.2531203e+00
  1.1994563e-02
 -4.8990831e-01
 -2.1909373e-03
 -1.7632483e-02
  9.8213265e-03
  4.3643418e-01
  2.7206510e-02
  2.9083476e-03
 -7.9114903e-03
 -3.2397050e-02
 -4.5319013e-03
  4.1792932e-01
 -8.7718349e-03
  7.2943643e-03
 -6.2148683e-03
  3.3798867e-01
  1.0609528e-02
  3.0143484e-02
  4.0911590e-03
 -2.1154406e-03
  1.1630944e-02
 -1.5263520e-02
 -2.9475046e-03
 -5.4565765e-04
 -1.2281024e-02
  7.1637011e-03
 -7.7002328e-03
  9.4736964e-01
  1.3506103e-02
  9.9293524e-03
 -1.1630951e-02
  1.4671398e-03
  2.5284262e-03
  1.5427770e-02
 -9.0770016e-04
 -8.7965196e-03
 -9.8666817e-02
 -1.7927142e-03
  1.0838780e-02
  2.0631639e-02
 -7.7928705e-03
  2.1016739e-02
 -4.8697684e-03
  1.0416202e-02
 -1.1405106e-02
 -3.5472345e-03
 -4.0821201e-01
 -1.0846591e-02
 -5.5107765e-02
 -1.1603252e-02
 -1.1103904e-02
  6.0447957e-02
  8.4515765e-02
 -1.6350608e-02
  4.3270615e-01
  3.1507475e-04
  2.6123898e-05
 -2.5465775e-02
  8.5669465e-02
 -8.4141088e-01
  2.2384141e-01
  9.5527537e-02
  3.4283329e-02
  1.0254220e-01
 -3.4601990e-02
 -2.1478906e-02
 -3.9141849e-03
 -2.2084378e-02
 -9.7817117e-03
  3.4424455e-03
 -8.0150049e-03
  2.0861994e-02
 -2.3062512e-02
 -2.8696542e-03
  1.4056490e-03
 -1.2627810e-01
 -4.2595221e-03
 -6.0699787e-03
  3.7378691e-02
  4.0900391e-03
 -7.1699589e-02
  2.4769669e-02
 -1.0650552e-02
  1.9730693e-03
  1.2529296e-03
  3.2793992e-04
  2.4597775e-02
 -7.2792286e-01
 -5.9175277e-03
  7.4240873e-03
  2.5632808e-02
 -2.3291379e-02
  9.1669364e-03
  1.9867448e-02
 -2.7950732e-03
  1.0497118e-02
  1.3201838e-02
  2.3759611e-02
  8.6118824e-05
 -4.1328901e-03
 -2.2205719e-04
 -7.9877470e-03
 -1.0319624e-02
 -3.2117078e-04
  2.2222180e-02
  5.4193628e-01
 -1.1123585e-03
 -1.1774597e-02
  8.7190615e-03
  1.6229706e-01
  5.7707988e-03
  1.3801974e-02
 -3.5938606e-02
  5.8382675e-03
  2.0156026e-02
 -5.9415200e-03
  1.2836343e-02
 -3.0125875e-02
  5.6563061e-01
  1.0086973e-01
 -2.5527292e-01
 -4.0762541e-01
 -3.8575253e-01
 -5.7576620e-03
  6.0405988e-01
 -1.8293184e-01
 -1.2163897e-02
 -2.0142702e-02
  3.0281290e-01
  1.6778646e-01
  3.0515926e-02
 -9.2909120e-02
  1.1939218e-02
 -1.5569791e-01
  8.8449903e-02
  1.1875451e-02
 -1.3032115e-02
  7.1233451e-01
  9.3960259e-03
 -7.4966353e-01
  1.4119606e-01
 -5.7017533e-03
  1.9175279e-01
 -3.2811903e-03
 -7.0510274e-03
  1.4285186e-01
 -2.1833563e-02
  1.5043045e-02
  4.8669446e-01
  7.1705484e-01
  4.1289639e-01
  3.3225633e-02
 -8.7845421e-01
  1.3086718e+00
 -1.0905341e+00
  1.5851460e-01
  1.6669081e+00
 -1.7654229e+00
 -6.4613730e-01
 -4.7234797e-01
  1.9680943e+00
  4.3030691e-01
 -7.0984036e-01
 -1.7572348e-01
 -7.2948915e-01
  2.3765781e+00
  6.2125510e-01
 -5.5785108e-01
 -1.3153438e-01
 -1.1942989e+00
  1.3406051e+00
  4.2944461e-01
 -9.1049439e-01
 -4.8046432e-02
 -1.9797677e-02
 -3.5884228e-02
  6.0597485e-01
 -2.5800301e-02
 -2.2100854e-01
 -5.2281791e-01
  8.0526620e-01
  5.6762391e-01
 -3.5205612e-01
  1.4695525e-01
 -6.6366065e-01
 -5.4267305e-01
  8.9638364e-01
  4.2604661e-01
 -5.2997941e-01
 -1.8639560e-01
 -1.3108739e-01
 -1.4750981e-01
 -4.6156484e-01
 -2.2989309e-01
 -1.7846945e-01
  4.8174225e-03
 -1.2845570e-01
 -1.5927392e+00
  2.0415433e-05
 -2.3757559e-03
  4.8055673e-01
 -2.5491047e-01
 -2.2410281e-01
  5.4844962e-03
 -4.4059441e-03
 -1.6720116e-01
  1.0770249e-01
 -4.0010396e-02
 -2.9319194e-01
  5.9217002e-02
 -5.9646681e-02
  4.8001647e-01
 -4.1103315e-01
 -1.7208384e-01
  4.9163350e-03
 -3.5304356e-01
 -1.5997335e+00
  1.7598711e-02
  5.1765168e-01
  3.2742649e-02
 -1.5636598e+00
 -2.3812905e-04
 -7.6060579e-03
 -1.1073552e-04
  3.8302939e-02
 -4.3920100e-01
 -1.0818511e-01
  6.8003186e-03
 -7.6667368e-02
  5.5097481e-03
  7.0096099e-01
  5.2552700e-01
  5.6906235e-01
  2.0660735e-03
  1.6013397e-01
  1.0942247e+00
 -1.1316140e-02
 -5.7052576e-04
 -5.2925572e-02
 -1.0415467e-02
  1.7171417e-03
 -1.5904017e-02
  5.9843019e-02
 -7.8294305e-03
 -6.8987412e-03
 -1.3009714e-02
  1.1364149e-02
 -5.5074915e-03
  2.6042354e-03
 -2.5628032e-02
  1.1384792e-02
  2.4664886e-03
  3.1105074e-04
  4.8877653e-01
  1.0481467e-03
 -1.0611170e-02
 -1.3970898e-02
 -1.0691824e-02
  1.0915629e-03
  5.1170778e-03
  1.7456302e-02
  2.6700683e-02
  9.8177204e-03
 -9.9850558e-02
 -1.3783532e-02
  2.8269559e-02
  1.2261041e-02
 -1.7784808e-02
  1.6724071e-02
 -3.4819040e-03
 -1.4072479e-02
 -4.3387562e-03
  1.4170083e-02
 -7.1765441e-03
 -5.6661046e-01
 -8.6330930e-03
  2.0987812e-02
 -1.2809500e-03
 -2.1197269e-02
 -2.6062592e-03
 -9.8412633e-03
 -1.7052352e-02
  7.8326352e-03
  6.8510775e-03
  7.6407893e-03
 -2.6894258e-03
 -1.1461290e-02
  7.6982309e-03
 -6.7705959e-01
 -2.8562233e-02
  3.2683738e-02
 -1.7703455e-03
  3.1046913e-04
 -8.0238003e-03
 -2.0644015e-03
 -2.4794899e-03
  8.3568832e-04
 -9.8969797e-03
  2.6633646e-03
 -2.1100616e-02
  1.6787754e-02
 -8.8280387e-05
 -8.8126175e-03
 -1.6678020e-02
 -2.2145358e-03
  1.5105872e-02
 -6.2537193e-03
  8.5586645e-03
  5.7086465e-04
  2.1538991e-03
  2.7596125e-02
 -7.4474122e-03
 -3.5857357e-02
 -4.2713704e-03
  1.6402812e-01
 -1.0234487e-03
 -1.7408809e-02
 -1.8488928e-03
  1.2816195e-02
  4.9952250e-03
  1.1811932e-02
 -1.6711612e-03
  1.0906863e-02
 -3.3594724e-02
  1.8763222e-02
 -1.2531723e-02
 -4.3468263e-02
 -1.5309935e-02
 -1.2846905e+00
 -1.4136237e-02
  1.3976555e-02
 -3.6164059e-03
  9.2683164e-03
  5.7635461e-03
 -1.1249150e-02
 -2.8597951e-02
 -1.2286711e-02
  2.9891485e-02
 -7.0646317e-03
 -2.4062465e-03
  6.7250840e-03
  8.9813247e-03
  1.8917102e-03
 -2.5808104e-04
 -2.9149637e-02
  3.6710870e-02
  9.3209986e-03
 -1.2687434e-02
 -6.3471600e-02
  2.3052143e-03
 -1.5029387e-02
  1.5171198e-04
  9.0023567e-04
 -9.7443275e-03
  1.6937174e-02
 -2.1610551e-03
  2.3058841e-02
 -3.4654584e-02
  1.7292047e-02
  2.4732005e-02
 -2.5676839e-02
  2.0830899e-02
  1.2646289e-02
 -5.3061489e-03
  1.7917968e-02
 -1.6793815e-02
  5.1039994e-02
  1.4871869e-03
  3.1913654e-03
  5.8696684e-03
 -2.8172344e-02
 -3.8083330e-02
  3.3481839e-01
 -7.2358428e-03
  1.4603558e-02
 -1.3810747e-02
 -5.3511690e-03
 -3.4908394e-03
 -4.2625099e-02
  4.3867757e-03
  4.5763599e-03
  1.9931282e-01
  7.9714715e-02
  1.0640129e-03
 -9.3604205e-03
 -1.8722733e-03
 -1.2768336e-03
 -3.0599502e-03
 -3.8879968e-03
 -1.5563458e-01
  9.2094539e-05
 -4.0486433e-02
 -8.4146950e-04
  7.3486441e-03
 -6.2377814e-02
 -3.2901343e-02
 -1.5630717e-04
  1.9522529e-02
 -2.3765559e-03
 -2.8827555e-02
  1.6945956e-02
 -2.1262902e-03
 -8.0667846e-03
 -3.7087285e-04
  6.1041130e-05
  7.2133914e-03
  1.9289628e-02
 -3.0870395e-02
 -6.1212678e-04
  4.8215669e-03
 -2.8190104e-02
  1.5702974e-02
 -1.3742599e-02
 -1.0508409e-02
  2.4827613e-04
  2.1536840e-01
 -1.3694948e-03
 -3.1487778e-04
  9.1020668e-01
  1.4710823e-02
  4.1914936e-03
  2.0337606e-02
  4.0582132e-02
  4.0360052e-02
  1.5604440e+00
  8.7302653e-03
  1.5302334e-03
 -1.5514317e+00
 -5.9834957e-02
 -5.9796828e-03
 -4.9718377e-01
  2.0643894e-02
  2.7223050e-03
  8.7570623e-03
 -1.5392209e+00
 -1.1508840e-02
 -7.2039068e-03
  6.7299837e-03
  1.8703622e-01
 -2.0419620e-01
 -7.6836550e-01
 -1.8686188e-02
 -1.0021457e-02
  2.4452161e-02
 -8.0195060e-03
 -3.6116630e-02
 -3.2199954e-04
 -8.7566413e-03
  1.6924236e+00
  1.7197968e-02
 -1.1853708e-03
  4.5193008e-01
  1.3083776e-03
  1.7254117e-01
  2.7199283e-01
 -3.9105189e-01
  8.0418490e-02
  5.1672002e-03
 -4.4209968e-02
 -5.2555073e-03
  4.8321271e-01
 -1.6277108e-01
  6.9978796e-02
 -3.0925592e-02
 -3.3939868e-01
  1.3678104e-01
 -3.2890040e-01
 -3.1517811e-02
  9.2398512e-01
 -1.3965935e+00
 -8.3918631e-01
  3.2109991e-01
  1.3266677e-02
  4.1160174e-03
  2.1021664e-02
 -1.1133256e-01
  1.5034425e-01
  4.7196690e-02
  9.1495545e-04
 -8.0361040e-03
  1.4691978e-03
  3.0097662e-02
  3.0843669e-04
 -5.7294900e-03
 -4.7069914e-03
 -3.7323108e-03
 -4.4966550e-03
 -1.3582475e-02
  3.1157961e-02
 -1.4579138e-01
  3.3047669e-02
 -1.2078629e-02
 -2.4327245e-02
 -1.7627722e-02
 -1.5410340e-02
 -1.4484027e-02
  1.0432678e-02
 -8.2406644e-03
  5.6724804e-03
  1.8040054e-03
 -8.8356202e-03
 -3.5074327e-02
 -1.8275099e-02
 -6.2872348e-03
  2.4318479e-02
  6.7305949e-04
  1.1737411e-02
  1.4477005e-02
 -2.5812896e-02
  2.0658966e-02
  3.5277207e-03
  3.6749346e-03
  1.6218139e-02
  1.0864310e-02
 -1.5325858e-03
  3.1120153e-02
 -1.9962482e-02
  3.0624840e-02
  7.9673051e-04
 -9.9415064e-04
  2.2568263e-03
  5.2178800e-02
 -9.0252589e-03
 -3.4780379e-02
 -1.3126552e-03
  2.0675514e-02
  4.9938010e-03
  1.1073976e-03
 -4.6634518e-02
 -2.0662586e-03
  7.4405489e-03
 -4.7969358e-04
  7.1550985e-03
  1.0719381e-03
  2.5855802e-02
 -2.5453852e-03
  5.3803814e-03
  3.4461478e-03
  6.9104070e-03
  2.5105421e-02
 -9.3309488e-03
  2.1423327e-03
  8.6956506e-04
  2.2674914e-02
  1.0237186e-02
  7.9971608e-03
 -4.6986407e-03
  3.3492681e-02
  2.7004660e-03
 -9.5088230e-03
 -9.1112973e-03
  9.9076992e-03
  6.6390452e-03
 -1.7660210e-03
  2.9522919e-03
  1.6159201e-02
  1.0815411e-02
  4.4795632e-02
  5.8081204e-01
 -1.0297160e-02
  2.3164488e-03
 -1.7961023e-03
 -1.4517357e-03
 -5.2598310e-03
 -6.2288800e-03
 -2.7792852e-02
  8.9635570e-03
 -4.0862367e-02
  9.4878664e-03
  8.1118708e-04
  3.2180149e-02
  5.4912521e-03
 -1.9477360e-02
  5.6700418e-03
 -7.2955033e-03
 -8.3268378e-03
  3.5762534e-02
  1.8421683e-02
 -4.5277802e-03
  2.9257736e-03
  8.8748327e-03
  6.5952647e-03
 -4.1457075e-03
  1.1690193e-01
  4.0079236e-02
 -7.6332488e-03
 -2.6602594e-03
  1.2870691e-02
 -6.4960644e-03
 -4.9415874e-05
  1.5948208e-02
  6.0817222e-03
 -9.1940314e-03
  7.8148441e-03
 -7.3737156e-04
  1.1772302e-02
  3.9219465e-02
 -1.0063654e-02
  5.5126708e-02
  3.1947246e-04
  1.3734704e-02
  1.6696332e-03
  2.1585561e-02
 -8.9879865e-03
  8.3545977e-03
  3.2884762e-02
 -1.0924030e-02
  1.3493164e-02
  2.7473018e-02
 -7.6646991e-03
 -1.7453721e-03
 -1.5029547e-02
  4.2393997e-02
  7.0352573e-03
  1.1617835e-02
  7.8183301e-03
  1.3194251e-02
  7.5386767e-03
  1.3931251e-02
 -2.5806647e-02
  1.0955927e-03
  6.4431801e-03
  1.0458663e-02
  1.6283076e-02
 -1.8618214e-03
  1.6467581e-03
  5.3047016e-04
  6.2628677e-03
 -4.4369009e-01
 -2.7262375e-01
 -9.0171963e-02
  2.4961939e-01
 -1.4045876e-02
  4.0467736e-01
 -4.2257700e-03
 -1.4697772e-02
 -3.4161337e-02
 -9.0388423e-03
 -4.6491194e-01
  6.9185742e-03
 -1.1711940e-02
  1.9195633e-02
 -1.1168781e-02
  6.7613107e-01
 -1.2364509e-03
 -2.4484857e-03
 -6.6822926e-03
  2.0087671e-02
 -3.7393934e-01
 -1.5015185e-03
  4.6716855e-04
  1.0367049e-02
 -5.1274677e-03
 -9.6356235e-03
  1.0184719e-03
 -1.5591872e-02
 -2.4160754e-03
  8.8128159e-03
  3.1221244e-02
 -1.9370835e-02
 -2.4813253e-03
 -2.8875569e-02
  5.2091223e-04
 -9.0770230e-02
 -1.5252450e-02
  1.4441488e-02
 -6.7213946e-04
  2.0283636e-02
 -1.2910170e-02
  7.1097771e-03
 -3.4349229e-02
  2.2402704e-03
  1.7567372e-02
 -6.0229171e-03
 -5.3987657e-03
 -2.8483218e-02
  4.2450171e-02
 -1.1869206e-02
 -3.5183639e-03
 -1.8236121e-02
  5.3286180e-03
 -2.4188142e-03
  4.5426507e-03
  3.9592194e-03
  2.6918827e-02
 -2.9522472e-03
 -1.0015098e-02
  7.8879567e-03
 -2.1378944e-02
 -6.3752909e-03
 -8.0876574e-03
  2.5562025e-03
 -4.1125864e-03
 -3.7386673e-04
 -1.7278906e-02
  1.5798882e-02
 -2.3892936e-03
 -2.1017063e-03
 -3.6626302e-02
  1.1635571e-02
 -4.7714780e-03
  2.6824936e-02
 -5.2833464e-03
  1.0444719e-02
 -8.2902089e-03
  2.0835109e-03
 -7.2528138e-03
  2.0204674e-02
  1.4188299e-02
  2.7741678e-03
  3.0179831e-01
  4.3345049e-02
 -8.5090017e-03
  8.9562554e-03
 -1.8603155e-02
  1.2429086e-02
 -4.3777181e-03
  8.5165876e-01
 -1.0160635e-02
  1.8634096e-02
  1.9307252e-02
  9.8205137e-04
 -1.9994650e-02
  1.3760760e-02
 -9.7046308e-03
  2.8168792e-03
 -1.3129624e-02
  2.2579210e-02
 -1.5950007e-02
  2.2054682e-02
  4.5601252e-04
 -8.1997970e-03
 -3.0377945e-03
  9.1451211e-03
 -1.2285201e-03
 -1.6917128e-02
 -2.0041117e-03
 -1.0002598e-02
 -8.1720520e-03
 -3.2403914e-03
 -1.2486892e-02
  1.0597631e-02
  1.2842137e-02
 -9.5533598e-03
  1.4007155e-02
 -1.3476494e-02
  1.8420273e-03
 -4.6661440e-02
  6.6941548e-03
  5.0894812e-02
  2.3191631e-02
  6.3611269e-02
 -1.0682119e-03
 -1.5511326e-02
 -8.5898337e-04
  2.6741909e-02
  4.8331502e-03
  9.9653180e-04
 -7.3811575e-03
 -4.4370950e-03
  6.0810704e-02
 -1.6334575e-02
 -8.7186527e-03
 -2.7349245e-04
 -6.8660146e-03
 -4.1151945e-03
  5.5092452e-05
  1.9973940e-04
  1.3074444e-03
 -4.5005386e-03
  3.6910646e-02
 -7.0185428e-03
  6.0450798e-03
 -1.3966512e-02
 -5.3603049e-02
 -8.0506112e-03
  5.9041907e-03
  6.5355585e-03
  1.9350220e-02
 -6.0204314e-03
  1.2347678e-02
  1.1489968e-02
 -4.4949632e-02
 -3.5619661e-02
  2.3058606e-03
  2.8351724e-02
  1.3032611e-02
 -4.4264528e-03
 -2.0642502e-02
  6.3726781e-03
 -5.1184431e-02
 -9.3639027e-03
  8.6408173e-04
 -2.3236086e-03
  1.0784646e-02
 -8.4048249e-03
  8.5327346e-03
  1.5862585e-03
  2.8734030e-02
 -3.4703787e-03
 -6.1044461e-01
  9.3220416e-03
 -1.6152043e-02
 -1.1242411e-02
  3.0659921e-03
 -5.4440866e-03
 -8.6426241e-03
  1.6993226e-02
 -2.5749796e-03
 -1.1694912e-02
 -2.1158302e-02
  8.2635567e-02
  6.2531582e-04
 -9.2943786e-03
 -1.2561241e-02
  1.1745392e-02
 -1.6764348e-03
 -5.2605304e-03
 -1.5585575e+00
  9.8818506e-04
  4.6834955e-03
  3.1043475e-02
  7.2513935e-03
  3.0554336e-02
  1.7280970e-02
  1.6338682e-02
 -5.9003346e-03
  8.9233126e-03
  2.7980194e-03
  2.8580569e-02
 -3.6228264e-03
  5.0960919e-03
 -1.6080681e-03
 -1.3190215e-02
 -1.3210775e-02
 -2.3359847e-03
 -2.3141138e-03
  1.0269213e-02
 -2.5955204e-02
  3.1900771e-02
 -1.2937207e-02
  7.7308235e-03
  7.5941104e-03
 -6.4090118e-03
  7.6881717e-03
 -1.6079569e-02
  3.4332730e-02
 -2.4973480e-01
  1.0940792e-02
  1.5240521e-03
 -7.7974501e-06
  1.4815978e-02
  4.0815445e-03
 -1.0608092e-02
 -1.5762735e-02
  8.8077653e-03
 -1.6644511e-02
 -6.4846448e-04
 -2.1410966e-02
 -1.1230666e-02
 -6.0313800e-03
  8.1293890e-03
  8.7378044e-03
  3.0888820e-03
  2.3840624e-03
  1.1064379e-02
  1.6913181e-03
  2.2488695e-02
  4.0892363e-03
  1.5705096e-03
  1.0595537e-02
  5.5926149e-03
  1.9640263e-02
  8.0224397e-03
  2.7493788e-02
 -2.0405991e-02
 -2.8264306e-03
 -3.7516553e-03
 -8.0617778e-03
 -6.5077357e-03
 -2.6132469e-04
 -4.4277217e-03
 -1.3396746e-02
 -4.6008509e-03
  1.7531883e-02
  2.5317201e-03
  6.4480975e-03
  3.5396663e-03
  8.6965477e-03
 -1.0878948e-02
 -2.7128160e-03
  3.5152058e-03
 -1.1978193e-02
  7.3740007e-03
 -2.2928142e-03
 -4.7312309e-03
 -1.4671162e-02
 -1.0002998e-02
 -6.8686604e-03
  8.5924212e-03
  1.0052439e-02
 -6.5542045e-03
  1.7516374e-03
  2.4795972e-02
  1.4301325e-02
  7.9424120e-03
 -6.8865027e-03
  7.8444118e-03
  1.2619492e-02
 -3.6427442e-02
  5.9328857e-04
 -1.8375812e-03
  6.6190702e-04
 -1.9257922e-02
 -9.8586753e-03
 -1.1031933e-02
 -1.0485374e-02
  2.1254456e-02
 -1.0096342e-02
  6.1226934e-03
  1.1368766e-02
 -3.5906513e-03
 -1.3269940e-03
 -1.5523486e-02
  1.6163578e-02
 -3.4484710e-03
 -1.1739924e-02
 -1.4085763e-03
 -5.2008624e-03
 -1.5750056e-02
  8.2048140e-03
 -6.4653945e-03
  1.0723888e-02
  2.8115060e-02
  1.8179240e-02
  4.7967523e-02
 -6.2288675e-03
 -7.4020609e-02
  3.2393511e-03
 -3.5536892e-03
  8.0356998e-03
  1.6295394e-02
 -1.4551874e-02
 -2.4932530e-03
 -3.2923508e-03
  1.7306896e-02
 -1.5716651e-02
  2.4184061e-02
  9.5140832e-03
 -3.2229718e-02
  1.1013586e-02
  3.8151104e-02
  6.8728685e-01
 -1.1628161e-02
 -6.3459113e-02
 -4.7711255e-03
  1.1334408e-02
  3.7641518e-03
  3.6075329e-03
  1.4116256e-02
  7.8069009e-03
 -8.8251606e-02
 -2.8750117e-04
 -1.9451184e-02
 -1.8541265e-03
  5.0108363e-03
 -3.6147997e-02
 -1.6333496e-02
  9.1004679e-03
  1.0349300e-02
  6.1583002e-03
 -4.0085725e-03
 -4.2478766e-02
 -9.2429426e-03
  1.7529935e-02
  4.9357168e-02
  1.0429974e-02
  9.8773802e-04
 -1.0240380e-02
  4.8470194e-03
 -5.5786911e-03
 -1.8608613e-03
 -5.0342428e-03
  1.1069844e-02
  3.6353895e-03
 -2.6550844e-02
 -8.3423760e-03
 -1.2312697e-02
  4.2524531e-02
 -2.2621984e-02
  1.1260138e-01
  2.2424303e-02
  3.7020268e-03
  1.1891304e-02
  1.1891434e-01
  1.4778692e-02
  9.8518580e-03
 -2.2581592e-03
  4.6651522e-04
 -1.0075524e-02
  3.2198075e-03
  2.1232276e-03
 -1.2054109e-02
  1.8492971e-02
  2.3777536e-03
 -4.5145519e-02
 -4.5856610e-03
 -1.3273448e-02
 -1.0578639e-03
 -4.8772860e-03
  2.9493755e-02
 -1.5964460e-03
  1.3551667e-02
 -2.2099366e-02
  2.4339296e-02
 -1.8687708e-02
  7.7483845e-03
  9.9794054e-03
  1.1163717e-02
  1.0873089e-03
  1.2333221e-03
  1.0324882e-02
  6.0877823e-03
  5.4933992e-03
 -5.9853345e-03
 -6.4929896e-03
  3.1770300e-02
 -3.5407741e-03
  2.0613115e-02
 -1.0854477e-02
 -1.7190853e-02
 -5.6386362e-03
 -2.9021613e-02
  9.2732832e-03
  1.0227056e-03
 -3.5512544e-02
 -6.6455649e-03
 -2.3228929e-03
 -3.8485369e-03
  1.7319245e-02
 -9.5596733e-03
 -2.5265526e-02
  1.5326697e-02
  7.0801708e-03
 -2.2920468e-03
 -3.8722258e-03
 -2.2093987e-02
  6.0527348e-03
 -1.6651623e-03
  4.8822249e-04
  5.9741838e-03
  2.3094120e-02
 -1.3743354e-02
 -3.6892913e-02
  9.6378010e-03
 -1.0518348e-03
 -1.2467834e-02
 -6.9140212e-04
 -4.3805037e-03
  1.0343697e-02
 -2.0992702e-03
  4.1003837e-03
  4.8243739e-03
  3.0261797e-03
  2.2984138e-03
 -1.7410326e-03
 -6.6257226e-03
 -1.5100488e-02
 -2.8422244e-03
  2.4098421e-02
  5.0162100e-03
 -4.8231245e-03
  2.6578352e-02
  9.0882990e-05
 -6.8709906e-03
 -5.9754765e-03
  7.8859450e-03
 -6.2621065e-04
 -7.5029051e-03
 -2.3086367e-02
  3.7127834e-02
 -6.7380838e-02
 -8.7966816e-03
 -2.3593904e-01
  2.7530924e-03
  6.4075910e-03
  5.9716764e-04
 -1.0983865e-02
  4.6392730e-01
 -6.4694374e-03
  3.5147429e-02
  3.4254033e-03
  7.2728004e-03
 -2.4075502e-01
 -1.5280305e-02
  1.4088309e-03
  7.5392295e-03
 -8.4412214e-04
  1.3745084e-01
 -3.6692589e-03
  3.4277921e-03
  1.2376378e+00
  5.7052601e-02
  5.7657849e-02
 -6.6713907e-02
 -2.6435438e-03
 -1.0236901e-02
  8.9984415e-03
 -8.0416081e-03
  6.3170712e-03
 -1.5857038e-01
 -1.9606678e-02
 -4.5061181e-03
 -2.7993476e-02
  3.4327621e-03
 -4.3597477e-04
 -9.5720980e-03
  3.5197134e-03
  2.1564001e-02
  9.9673122e-03
  3.3995693e-03
  9.6286619e-03
 -6.5096617e-03
 -1.1043015e-02
  3.6173258e-02
 -1.5855398e-02
  1.0696728e-02
  1.4098810e-02
 -7.9314029e-03
 -7.2359820e-03
  1.3094994e-02
  4.8072971e-03
  2.2141157e-02
  3.3494800e-03
  1.2856097e-02
  1.7350456e-02
 -8.9617610e-02
  3.6253382e-03
  5.9570465e-03
  2.7491709e-02
  2.8604487e-02
  5.4337904e-03
  5.7213544e-03
 -1.0163260e-01
  6.7472677e-03
 -1.3263773e-03
 -2.4772791e-02
  4.9112416e-03
  4.7081560e-02
  1.3605600e-02
  9.2336195e-05
  9.7849648e-03
 -5.5585760e-03
 -6.4559137e-03
  1.3814757e-02
 -1.4184625e-01
 -5.9494255e-03
 -2.9029039e-01
  2.7823679e-02
  9.0291351e-03
  5.6160684e-03
  9.7624892e-03
  5.6864193e-04
 -1.5965512e-02
 -1.0082535e-02
 -4.2197496e-02
  1.3528157e-03
 -3.3800257e-04
  1.2465357e-03
 -1.3819641e-02
 -4.4894679e-03
  2.6925711e-02
  1.3090556e-02
  2.6552102e-03
  1.9634092e-02
  1.5708780e-02
  7.1923845e-03
 -3.7120013e-03
 -3.8008992e-02
 -1.8029574e-02
 -5.6184846e-01
  8.9556519e-03
 -4.1975524e-02
 -2.4364551e-03
 -2.2844803e-02
  7.5504482e-03
  2.5831407e-02
 -5.0418866e-03
  4.9732547e-02
  3.0219112e-02
 -1.3257811e-02
 -4.4729661e-02
 -2.7464719e-02
  7.2447123e-04
  1.8171296e-02
 -1.6000762e-03
  1.6700396e-02
  1.1787777e-02
  1.0212136e-02
  3.8876157e-02
 -7.0966291e-03
 -8.0912504e-03
  2.0994918e-02
  1.8282024e-02
 -2.1381976e-02
 -2.0658907e-02
  1.8446419e-03
 -9.4609824e-04
 -7.9462642e-04
  5.3068344e-03
  1.5089314e-02
 -3.8335208e-02
 -2.3659199e-02
 -4.1868901e-03
  1.9218521e-02
 -9.8815979e-04
 -9.4840704e-03
 -7.3544681e-03
 -1.6456025e-02
 -1.2403143e-02
  8.7943142e-03
  6.7755807e-04
  1.2902194e-02
 -1.4931758e-02
 -7.1310421e-04
  6.4816554e-03
  2.1176161e-04
 -1.7572092e-02
  3.7429249e-03
 -1.1091972e-03
  1.7402660e-02
 -6.2286025e-01
  1.1425654e-02
  2.1631645e-02
 -6.2574289e-04
  6.4714998e-02
  2.0539755e-02
  4.0046223e-03
 -4.2052127e-02
 -3.3064660e-02
  1.0711739e-02
 -1.2035933e-02
 -6.7990874e-03
 -1.3624799e-03
 -1.3916802e-02
  7.6617450e-03
  2.3214754e-02
  5.5840942e-03
  1.0053390e-02
  1.1075803e-02
 -2.2264761e-03
 -1.2465634e-03
  3.6945343e-02
  2.4373015e-02
 -7.6292101e-03
  1.1923804e-02
  3.1029491e-03
  2.1243503e-03
  1.1997599e-02
  1.4392975e-03
 -1.8877208e-02
 -2.5102040e-03
 -7.7176387e-03
  5.6662463e-02
  1.4292061e-02
 -3.1316351e-02
 -3.8525087e-03
  1.8614743e-04
 -7.3031290e-03
 -1.3010927e-02
 -2.6973058e-02
  4.6128601e-02
  4.6852656e-02
  2.9098641e-02
 -2.8215973e-02
  8.3977999e-03
 -5.1315380e-03
  1.6738230e-02
  1.3030808e-02
  9.6013164e-03
 -1.4614920e-03
 -8.1803510e-03
  6.2511163e-04
 -2.5781158e-02
 -3.0374315e-01
 -1.3092587e-03
 -4.7985991e-03
 -2.7464984e-02
  1.8936813e-01
  1.7947216e-02
  6.5227345e-02
  1.3540763e-01
 -1.1508129e-02
  8.9853776e-01
 -4.7006425e-03
 -5.2271825e-03
 -5.9300866e-03
  7.4417903e-03
 -8.1526363e-01
  1.8669708e-02
  4.0688597e-02
  9.6793491e-03
  4.1141432e-02
  6.1117381e-01
 -6.3804159e-04
  8.1153652e-03
 -1.6467437e-03
  3.2839729e-04
 -4.8053452e-01
 -2.7690500e-03
 -3.1057070e-03
 -4.0120292e-03
  4.3765991e-03
 -8.0063611e-02
  1.6738228e-02
  7.8778761e-03
  1.7009296e-03
 -3.4619088e-04
 -5.6247758e-03
 -1.5679638e-01
  1.4870720e+00
 -1.7408139e+00
 -1.3488004e-04
 -1.2742021e+00
 -1.2059645e-02
 -2.3157260e-01
 -3.7036154e-02
  2.2442520e-02
  1.1493690e+00
 -1.4494983e-03
  1.0485182e-02
 -3.6182895e-02
  7.3673306e-03
 -1.9420530e-01
  1.4400057e-02
  6.7800009e-03
 -4.4053124e-04
  1.0257826e-02
 -6.2776017e-01
 -9.7618555e-04
  2.0361687e-03
 -1.3142089e+00
  7.2383735e-04
  1.2131783e-03
  1.8651791e-02
  2.3144712e-03
 -2.0240165e-02
  1.4616698e-02
  4.5493305e-02
 -3.2245755e-02
 -1.4344943e-03
  3.5607691e-03
  2.9287285e-01
 -9.1105780e-05
 -4.8910748e-05
  4.6623750e-03
 -1.0386471e-02
  2.1608556e-02
  1.5459182e-02
 -1.2298371e-03
 -7.7025010e-03
 -5.0317997e-04
  2.0136461e-02
  2.5276910e-03
 -3.2154318e-02
 -4.2549977e-03
  1.1596862e-02
 -3.5252343e-03
 -1.3173443e-02
 -3.6677148e-02
  2.7425275e-03
 -7.4091554e-03
 -4.3544259e-02
 -7.1299815e-04
 -2.2649655e-02
 -6.8368195e-03
 -2.1933897e-03
  1.1786074e-02
 -2.0255025e-02
  2.6749882e-03
 -5.8751623e-03
  6.2989178e-03
 -5.2929367e-03
  2.3824655e-02
 -2.3976929e-02
  1.7471150e-02
 -1.2351574e-02
  4.5130521e-02
  3.8007651e-03
 -5.9537427e-03
 -2.8499965e-02
  1.1968230e-02
  1.3958446e-02
  6.2447889e-03
  3.7964794e-03
 -4.7851647e-03
 -3.3995670e-03
 -6.9800328e-04
 -1.5812533e-02
 -1.5330193e-02
 -1.0319975e-02
 -1.7241884e-02
  7.9536689e-03
 -1.2928612e+00
  5.0778729e-03
  5.9489030e-02
 -2.9824814e-01
 -1.5816152e-02
 -6.9308467e-03
  5.8367820e-03
  1.4285131e-02
  2.2471672e-02
 -2.5769377e-02
 -9.2386317e-01
 -5.5482746e-03
 -4.4897739e-02
 -3.8824636e-02
 -4.7873976e-03
 -1.1962414e-03
 -4.4667593e-01
 -1.1725201e-02
 -6.5147821e-03
  1.0827448e-02
  1.6173191e-02
  5.2612025e-04
 -4.1039873e-02
 -1.7676461e-02
  1.0955499e-02
  7.2220349e-01
 -2.6020690e-04
  3.8848066e-01
 -2.0583041e-02
  1.7422575e-03
 -3.5387836e-03
 -4.6470910e-02
 -1.3851694e+00
  2.8813949e+00
 -7.3387787e-02
  1.7006467e-03
 -1.8867644e-02
 -4.3519512e-01
 -8.9397562e-01
 -2.1293964e+00
 -4.4473759e-03
  3.9542288e-01
 -8.1962638e-02
 -8.0443511e-04
 -2.0097101e-02
  2.2355820e-01
  3.1281146e-01
  2.0123899e-03
 -4.1876389e-03
 -2.0587360e-03
  4.3887550e-01
  2.3868123e-01
 -8.2496656e-03
  3.3067870e-03
 -1.2728523e-02
  2.5580189e-01
  2.6358131e-01
  1.3793108e-02
 -1.3827898e-02
 -7.9650935e-03
 -6.6452548e-02
 -1.2110463e-02
  1.6527992e-02
 -3.5084762e-02
 -5.8067702e-02
 -9.3993774e-05
  2.8394766e-03
 -1.0123189e-02
 -4.1430335e-02
  2.8733676e-02
  6.4440392e-02
  1.0403069e-03
  1.7017866e-02
 -2.1748450e-02
 -4.1203664e-04
  1.6276101e-02
 -5.2858745e-03
  1.9634649e-02
  3.3569788e-03
 -1.0364763e-02
  1.2715980e-02
 -5.3175348e-03
  9.7751413e-03
  5.3662453e-03
 -9.4199326e-04
 -3.2462139e-02
  2.3727992e-03
  2.7471922e-02
  8.1757875e-03
  2.9271564e-03
 -1.0944842e-04
  8.2009025e-03
 -3.2577913e-02
  2.9114683e-03
 -6.4359210e-02
 -1.1878004e-02
  4.8315316e-02
  2.5201681e-01
 -3.6027547e-02
 -2.8176835e-02
 -4.3612202e-03
  2.3442365e-03
 -1.0774897e-02
 -4.1040514e-02
  7.7504311e-03
 -2.3468928e-03
 -4.7614481e-03
 -1.9439713e-03
 -1.6539846e-02
  5.0429635e-02
 -1.0293467e-02
 -3.1095836e-03
 -3.1454101e-02
 -5.4584239e-03
  1.4678376e-03
  1.0348742e-03
 -2.0542268e-02
  1.2664758e-02
 -9.8463017e-03
 -4.3550329e-03
  1.5192610e-04
 -2.3612184e-02
 -6.8970374e-03
 -4.0060603e-03
  3.1365019e-03
 -9.1566248e-03
  1.6317049e-02
 -2.4640031e-02
  2.2574246e-02
  2.8299375e-02
  9.8394807e-03
  6.1662933e-03
 -3.6887021e-03
 -5.5195756e-02
 -2.0832440e-02
  2.2336843e-03
 -9.8176785e-03
 -1.2919570e-02
  2.5341023e-02
 -2.4947817e-02
  8.4746415e-03
  4.1568056e-03
  3.6084451e-02
 -1.0324308e-02
  1.1368435e-02
  1.3534968e-02
 -6.9652810e-03
  8.9549767e-03
  8.1889657e-03
 -5.2142846e-03
 -1.3238367e-02
  4.5048402e-04
  7.5548748e-03
 -2.8585339e-02
  6.7022168e-03
 -3.9838764e-01
 -9.5812643e-01
 -3.4268442e-01
 -1.0142389e-01
  3.6565617e-02
 -2.7534720e-01
  9.4736743e-01
 -3.2106194e-01
 -2.5755442e-03
  5.2881222e-02
  5.0842935e-01
  3.1241381e-01
 -1.1350842e-02
 -9.4437050e-03
  2.5363972e-02
 -4.7104424e-03
  3.4049597e-01
 -2.9617345e-03
 -1.8088816e-02
 -1.2905407e-02
  3.7672055e-01
  3.7718135e-01
 -2.9846264e-02
  2.3260657e-03
  1.1289869e-02
  2.1079877e-02
  1.8071847e-02
  6.1349859e-03
  7.0822532e-03
  3.6295014e-03
 -1.9154370e-01
 -7.2166550e-01
 -8.4039822e-02
 -2.8857365e-01
  7.1440154e-01
 -2.1039126e-02
  7.2417599e-01
 -2.3596786e-01
  8.2444409e-03
  2.5272647e-02
  3.7740722e-01
  3.9468139e-01
 -2.4748188e-02
 -8.7245204e-04
  8.2831047e-03
  3.0355713e-01
  2.7135512e-01
 -1.5209915e-02
  3.0688809e-02
 -3.1260906e-03
  3.1573194e-01
  3.1454301e-01
 -3.9033033e-02
 -3.1107424e-03
  3.8093526e-03
 -3.9950252e-02
  3.4734744e-03
  4.0225373e-03
 -4.4483960e-02
  1.2230302e-02
 -1.8265474e-03
  1.0054777e-02
 -6.2382359e-02
 -6.0060062e-04
  1.5969269e-02
 -3.9061054e-03
  2.1754472e-02
  3.9297538e-03
  9.6278880e-03
 -1.2606580e-02
  1.5789617e-03
 -5.5988412e-03
 -3.2142299e-04
  4.8450590e-03
  5.3289156e-02
 -1.3838570e-03
  6.6543180e-03
 -8.5945278e-03
 -7.5867027e-03
 -2.0976348e-02
 -8.6586168e-03
  3.6698365e-01
  6.6531738e-03
  7.0718193e-04
 -6.2251487e-03
  2.6440689e-02
 -3.2293417e-02
 -4.0571842e-02
  2.0179695e-03
 -1.6213803e-02
  9.5765568e-02
 -1.9858177e-01
  4.1404945e-01
 -5.9495736e-02
 -5.8029515e-01
  3.6014777e-02
 -1.4537004e+00
  4.5113125e-01
 -2.0770526e-02
 -2.0737927e-02
 -1.1028024e+00
 -1.0029374e+00
  2.5051609e-02
  1.8183276e-02
  2.1691972e-02
 -6.0408372e-01
 -9.3318939e-01
 -6.2756269e-04
 -3.8868180e-03
 -3.4440465e-03
 -7.1527088e-01
 -8.4064478e-01
  5.4165352e-02
  8.5715577e-03
 -3.4408089e-02
  2.1126980e-02
 -5.2742410e-04
 -2.1129819e-03
 -4.0409928e-03
  1.2989916e-02
  5.6251944e-03
  3.7377144e-03
  1.8602090e-02
 -5.7085515e-03
 -7.0959236e-04
 -2.8420085e-01
 -5.2564193e-02
  4.2663063e-03
  1.9385712e-02
  2.1463959e-03
  5.8774939e-03
 -9.1162585e-03
 -2.7086584e-02
  1.1930896e-03
  4.9043582e-03
 -7.9975668e-03
  2.6459249e-03
  3.2355692e-03
  2.6700633e-02
 -4.0407197e-04
 -3.6499717e-03
 -7.1389205e-04
 -3.9693620e-03
 -3.4174547e-03
  1.2539391e-02
 -4.3621315e-03
  3.5807319e-02
  8.2866567e-01
  1.4807135e-02
  3.9691296e-03
 -4.7262139e-03
  2.1254897e-02
 -2.2507536e-03
  1.8080806e-02
 -4.2102449e-03
 -1.7355843e-02
  6.7505958e-03
  2.6594349e-03
 -5.9946086e-03
 -1.2914492e-02
 -1.4949050e-02
  1.7523123e-02
  3.4111540e-03
  1.5640466e-02
  1.1678343e-02
  1.1374348e-02
  1.9182863e-02
  1.1925260e-02
 -1.5599038e-02
  1.0599919e-02
 -1.3535334e-02
  1.4291541e-03
  6.5932875e-03
  2.9661274e-02
  2.8109672e-03
 -1.0694586e-02
 -1.5901197e-02
 -3.4270611e-02
  2.2920813e-02
 -2.8064630e-03
  1.7276721e-02
 -9.9361886e-04
  1.3520289e-02
  6.7105191e-03
 -3.3992529e-02
  1.0097758e-02
 -9.2778169e-04
  3.8015254e-02
 -1.3376480e-03
 -2.6886746e-02
 -1.1513878e-04
 -4.5276098e-03
 -1.0643506e-02
  3.9321613e-03
 -7.4851204e-04
  2.4105042e-02
  2.4630956e-02
  2.2859886e-02
  3.3671647e-02
  1.5480445e-02
  1.1674185e-02
 -2.1353722e-02
 -8.0791675e-03
 -1.4647399e-02
  1.1036590e-02
  1.8239089e-05
  4.1138813e-02
 -9.0323592e-04
 -1.0267203e-02
 -1.2459110e-05
  9.1254544e-03
  6.7674951e-03
 -9.9337222e-03
 -5.3231582e-02
 -1.1790287e-02
 -2.2525642e-02
  6.2391972e-03
  9.8074097e-03
  2.3895316e-03
  1.0184078e-02
  5.9975474e-04
 -8.2160281e-03
 -6.5651969e-03
 -4.7987532e-03
 -2.5987094e-02
 -7.6740058e-03
 -3.4126945e-02
 -1.0422071e-02
 -1.1791884e-02
  1.1710603e-02
  5.7703536e-03
  8.0100988e-04
 -6.4200298e-03
  8.7663382e-03
  2.4103865e-02
 -2.7921933e-03
 -1.6694292e-02
 -2.0474978e-02
  2.4105613e-04
 -1.5982419e-02
 -1.4355102e-02
  1.6211392e-02
  4.1539245e-03
  1.4515542e-02
  5.2880563e-02
  1.6406326e-02
  3.2360037e-03
 -1.5883633e-03
 -4.0396329e-02
 -1.6503964e-02
 -1.8014355e-02
  1.8474482e-02
 -2.4688437e-03
  3.5862490e-03
  1.8538853e-02
 -1.9801720e-03
 -3.2448892e-02
  2.8351173e-03
  5.2563654e-04
 -5.5302328e-01
 -1.4109153e-01
  1.8703071e-02
  1.6617755e-03
 -2.2317097e-02
  3.7111787e-04
 -8.9597370e-04
  1.3231271e-02
 -2.2412187e-03
 -2.2208209e-03
 -1.8122947e-02
  1.3905481e-02
  2.1448659e-03
 -1.6135350e-02
 -1.6330339e-02
  3.2204301e-03
 -2.1738913e-02
 -1.2571204e-02
 -1.9100640e-02
  4.9565133e-02
 -4.3573552e-03
 -2.0612719e-02
  3.2706726e-02
 -5.6203716e-03
  4.4678350e-06
  5.6753531e-03
 -1.2805196e-02
  4.8157442e-02
  1.0370003e-02
 -2.7549367e-02
  1.1807146e-02
 -1.2606877e-02
 -3.2922728e-03
  7.6949963e-04
 -1.2657948e-02
 -2.5272558e-02
  2.3149229e-03
  1.9442080e-02
  7.6000053e-03
  2.2784227e-03
 -1.2588246e-02
 -3.0189216e-02
 -1.6307514e-02
 -3.6907449e-01
 -6.4150216e-03
  6.3423836e-01
 -8.6194454e-03
  1.5657417e-01
 -9.0577221e-04
  4.9042222e-03
  1.8565282e-02
  6.4606679e-04
  6.0559895e-02
 -8.0985334e-03
 -3.4410567e-03
  2.2589866e-02
 -1.7188657e-02
  2.4827991e-02
 -4.2769782e-02
  9.6204700e-03
  2.0176040e-03
  7.3480316e-02
  6.7332074e-02
 -2.2521512e-04
 -1.1460886e-03
 -3.1053660e-02
 -3.1934534e-03
 -2.3330741e-02
 -2.7335971e-03
 -1.3603989e-02
 -4.0185376e-04
  7.9714045e-02
  1.3784976e-01
  2.9264167e-02
 -1.3074526e-03
 -2.0139532e-02
  1.7318050e-03
  1.2987367e-02
  3.1674244e-03
 -2.5279811e-03
 -5.0348329e-04
 -2.1124133e-03
 -3.8689222e-02
  1.9343469e-03
  2.2208462e-03
  9.3369875e-03
  3.2877151e-03
 -1.1700734e-02
 -1.0489583e-02
  3.9638486e-03
 -1.2289618e-02
 -8.3122822e-03
 -8.1804879e-03
  2.3000840e-02
 -4.3179382e-02
 -1.2119895e-02
 -3.5313156e-02
 -2.8638965e-03
 -6.3205691e-04
  4.7608415e-04
 -9.3216803e-03
  1.6669612e-01
 -5.9502497e-02
  7.0698929e-01
  3.5868254e-01
  1.9695438e-01
 -8.4963171e-03
 -4.8514271e-01
  4.8984423e-01
  8.8882558e-03
  8.8518048e-03
  1.2528669e-03
 -2.3383540e-01
  1.0931102e-03
 -3.2906744e-03
  2.3472510e-02
 -5.7939338e-03
 -2.5499153e-01
  2.0431948e-03
 -1.0598067e-02
  1.6582532e-02
 -5.4450497e-02
 -1.4251707e-01
  1.0088206e-03
  2.3281025e-03
 -8.1809016e-04
 -2.1598035e-02
 -3.4877500e-03
 -4.3635257e-02
 -5.7045193e-03
 -1.0387555e-02
 -8.2873466e-04
 -6.2115174e-03
  7.1189469e-03
  6.4060660e-03
 -5.5162306e-03
  2.7628602e-02
 -7.8232447e-03
 -1.9206773e-02
  2.1512317e-03
 -6.6206013e-03
  1.5535665e-03
  5.9327362e-03
 -3.9751559e-02
 -1.4765886e-02
 -8.1903511e-04
  3.2177195e-03
 -6.8462859e-03
  1.7040507e-03
  4.7906753e-01
 -4.6825097e-03
  9.2896912e-03
 -1.1102986e-02
  3.8038034e-02
 -6.1707194e-03
 -4.8708897e-03
 -2.4444845e-03
 -9.3968138e-03
  5.8128330e-04
 -9.9273166e-04
 -4.4583824e-02
  6.4148172e-03
 -3.6470275e-03
  2.6501680e-03
 -1.4297671e-02
  4.0386464e-03
 -1.5666772e-02
  9.2175300e-04
  1.0109508e-03
 -2.1050105e-02
  2.2429010e-02
  3.8178600e-03
  2.0385524e-02
  2.0850165e-02
  6.7127444e-02
 -3.4793067e-01
 -6.8525518e-03
 -2.9102745e-03
 -4.6345210e-03
 -6.5701278e-03
 -1.6243191e-02
 -5.9876246e-03
  2.6251299e-02
  2.5697954e-03
  2.0385725e-02
 -1.1198780e-02
  2.0469137e-02
  2.7881140e-02
  1.4704233e-02
  2.8368782e-02
 -7.3144040e-03
 -6.1146176e-01
 -2.1486734e-01
 -2.5486025e-01
  4.8902515e-01
 -1.6148506e-02
  8.3673643e-03
  4.2310438e-01
 -1.5611406e-01
 -5.6053712e-03
  8.3861947e-03
  2.2943123e-01
  2.8659454e-01
 -4.0910463e-03
 -1.6349152e-02
  1.3010581e-02
 -2.2362247e-02
  1.7813309e-01
 -4.8954468e-02
  1.9583387e-02
  2.0273773e-02
  8.7265223e-02
  1.2680872e-01
  4.6099161e-04
  1.6787596e-02
  5.1715336e-04
 -3.1428845e-03
  1.3494692e-02
  8.1427348e-01
  8.6974502e-03
  5.9259417e-03
  6.1355624e-02
  8.2271570e-01
 -1.9128896e-01
  2.8871259e-02
  6.1504769e-01
  1.0589082e-02
  7.3930329e-01
 -2.5252557e-01
  2.3380248e-02
  5.8398522e-02
  4.4725797e-01
  5.3343117e-01
 -6.1087576e-03
  6.4655920e-03
 -1.7323486e-03
  6.8193503e-02
  4.9020174e-01
  4.5430567e-03
 -3.2370545e-02
 -7.6583354e-03
 -1.7401515e-02
  6.1179757e-01
 -1.0322869e-02
 -1.8543841e-02
  3.0992059e-03
 -5.7178076e-02
 -1.3152974e-02
 -1.7197056e-03
 -2.0152379e-03
  5.4690499e-02
 -1.4046330e-02
 -9.5552546e-01
  1.4747739e-03
 -7.4336506e-02
  9.5217228e-01
  2.9614621e-03
  1.5953278e-04
  2.9011117e-03
 -1.7545082e-02
 -2.4253076e-03
 -6.1033075e-03
  2.6273560e-02
 -9.2410315e-03
 -2.6369686e-03
  5.9798928e-03
  1.1670471e-02
  6.9687259e-04
 -2.3756116e-03
 -1.0516254e-02
 -3.6881953e-02
 -1.0906608e-01
 -8.7743243e-03
 -3.1724762e-02
  7.2949384e-03
  1.1187444e-02
  2.5874337e-02
 -7.5643929e-03
  3.2734029e-02
 -8.6232265e-03
 -7.5850668e-03
  3.0273651e-03
  1.1595051e-02
 -2.4966709e-03
  9.5706591e-03
 -6.0406597e-03
 -1.9650478e-02
 -1.5515810e-02
  2.7205689e-02
  6.6926610e-03
 -3.6077756e-02
 -1.1199835e-02
  1.0001291e-02
  1.6179316e-02
 -6.6260826e-03
  2.4987385e-03
  2.3772646e-02
  4.3741710e-04
 -7.5314357e-03
  9.5451940e-03
  3.1842709e-02
  1.5123646e-02
  6.6682873e-03
 -1.1905301e-02
 -5.1125768e-03
 -1.4296977e-02
 -4.3794303e-03
 -2.3592863e-02
  1.4330645e-03
  4.4557435e-04
 -2.3564880e-03
 -6.4860960e-03
 -7.8868642e-03
  4.9028855e-02
  2.9967255e-03
 -9.8930066e-03
  7.5449224e-04
  3.0984012e-03
  2.3438817e-02
 -3.4988003e-03
  4.3255869e-02
 -1.7315257e-02
 -2.7532761e-03
 -2.4098093e-02
 -5.1730648e-03
  2.0514629e-04
  2.2905626e-04
  7.1684900e-03
 -4.1456069e-03
 -1.2971940e-05
  3.7106484e-02
 -4.6576217e-02
  1.1034387e-02
  9.8271882e-03
 -1.2121804e-02
  1.0542054e-02
  1.8612320e-02
  2.0676617e-02
 -1.6801341e-03
 -1.6800089e-02
  5.8115833e-03
 -4.4914633e-01
  1.3777744e-02
 -3.5851502e-01
 -1.9399885e-03
  7.0226759e-01
  1.1341722e-02
 -1.1640892e-02
 -5.5432310e-03
  8.5136783e-04
  6.3288873e-03
  3.4505505e-02
  2.1830112e-02
  1.0411819e-02
  1.3030685e-03
  2.0515665e-02
 -1.2744449e+00
  2.0863056e-02
 -2.6264383e-02
  8.4710233e-03
 -1.3358695e-03
  4.7856033e-02
  5.8973387e-02
  2.4955445e-03
 -1.1610130e-01
  2.6235098e-03
 -6.2660165e-03
 -1.0005699e-02
  2.0042143e-03
 -3.7885595e-03
 -1.8573056e-03
 -2.1886960e-02
 -1.0053118e-02
  2.0589936e-03
 -7.8366846e-03
 -3.0352352e-03
 -5.6341910e-03
 -1.2660812e-02
  5.3005670e-03
  2.0306816e-03
 -5.8384715e-03
 -1.8104505e-02
  6.2400759e-03
  4.3180779e-02
 -2.0593323e-03
 -5.0392412e-03
 -8.6961733e-03
 -3.1648282e-02
 -4.0231124e-02
  1.8451726e-03
 -6.9490583e-03
 -6.8225700e-04
  2.6093710e-02
  5.3815823e-02
 -3.6844992e-04
  3.8954120e-02
 -4.7548837e-03
  1.2110407e-02
 -1.6197089e-02
 -3.0741549e-01
  7.7924095e-03
 -5.9273103e-03
  3.0892890e-02
 -3.0836448e-02
 -1.6225420e-03
 -7.6800724e-03
  8.1670703e-03
  1.7537756e-02
  9.8284986e-03
 -1.1021791e-02
  2.7967887e-02
  4.6191094e-03
  1.6307377e-03
  1.0221135e-03
  1.6305029e-02
 -6.5206992e-03
 -1.3297041e-03
 -6.0833883e-03
 -2.4884050e-03
  7.8297593e-03
 -5.4738852e-03
  3.3048432e-02
  5.6319553e-01
 -1.7002167e-02
 -8.5966084e-03
  6.2119879e-04
  7.9666460e-03
 -1.9090777e-02
  1.4803216e-03
  4.3363580e-03
 -6.8674148e-03
 -1.7186189e-02
 -2.7797339e-02
 -1.3297158e-02
 -1.4595198e-02
  1.1517053e-03
 -3.4847709e-03
 -2.7602189e-03
  1.8194327e-03
 -3.9364691e-03
  1.6953439e-03
 -4.0228569e-04
  3.3643246e-02
 -3.3605531e-02
  6.6738558e-04
 -1.2726878e-02
 -3.3311862e-03
 -3.1553730e-02
  2.5244595e-03
  4.2322382e-02
  6.2660851e-02
 -3.1837106e-02
 -6.5141632e-03
  2.5638813e-02
 -7.5631766e-03
  7.6176114e-03
  2.4402294e-04
  1.1457755e-02
 -5.3288410e-03
  2.7408604e-02
 -1.1020345e-03
 -5.1889876e-03
  6.7841582e-04
  1.6879819e-03
  1.3402306e-02
 -1.8838983e-02
 -2.0535900e-03
  6.5181311e-03
  1.2037512e-03
  6.1090859e-03
 -3.9874418e-03
  3.4667465e-03
  1.7607611e-02
 -5.0287473e-04
 -3.0341735e-03
  6.9395979e-03
  1.7154941e-03
  5.1910006e-02
  2.0129250e-01
 -1.5836662e-02
  1.7527750e-02
 -8.4036412e-03
  8.1636375e-03
  4.2195435e-04
  2.2706952e-02
 -1.9202769e-02
 -3.1978115e-02
  4.3778969e-03
 -9.6894037e-03
  1.2874329e-03
 -3.1236801e-02
 -3.0204713e-01
 -6.8660313e-01
  6.4880773e-02
  1.4499190e+00
  1.9253345e+00
 -2.1595602e-01
 -9.2903781e-01
  5.8373982e-01
  7.0058770e-02
 -6.3266832e-04
 -7.1656507e-01
 -8.8826638e-01
  8.9948745e-03
 -2.2070383e-01
  2.0611838e-03
 -7.0583838e-01
 -1.0557553e+00
  9.6650617e-03
  7.0983935e-03
 -6.8673640e-03
 -3.7000081e-01
 -4.8812672e-01
 -5.3850529e-03
 -1.2870844e-02
  1.8272208e-03
 -1.8069722e-03
 -1.0069918e-02
  1.5496558e-02
  1.3812331e-02
  1.3115615e-02
  6.8616229e-01
  1.2190597e-02
  2.7255762e-02
  7.2854274e-04
  1.0909824e-02
  4.2665746e-02
  9.5257902e-04
 -5.5822123e-02
  3.9577307e-03
  2.9333631e-02
  5.9219648e-04
 -9.8751904e-03
  4.5101186e-03
  1.5867539e-02
 -6.0558524e-03
  1.9966650e-03
  5.6378669e-03
 -1.3230874e-02
 -2.5139621e-02
  5.1718790e-02
  2.2921102e-01
  5.4133773e-02
 -5.3271730e-03
  3.0399339e-02
  9.8419162e-03
  6.6142932e-02
  2.0521082e-02
  1.3084114e-02
 -4.7212266e-03
 -1.0748830e+00
  1.5058936e+00
 -9.2509692e-04
  1.4693999e-01
 -1.0333775e-02
  1.8922677e+00
  1.7727666e+00
  1.1502713e-02
 -3.4385593e+00
  1.1128121e-02
  4.7056569e-04
 -1.3570134e-02
  1.0865989e-02
  6.0986392e-03
 -3.1782917e-03
  7.4052191e-01
 -4.2748168e-01
 -1.1632868e+00
  2.7716229e-02
  1.5209969e-04
  1.3203741e+00
  1.7380284e+00
  1.6957898e-01
 -5.9822039e-03
 -1.3725197e-01
  2.7204159e-01
  2.3057831e-03
  2.1671954e-01
  2.9704947e-02
 -2.1188542e-02
 -2.5048776e+00
  1.6426222e+00
  3.8432851e-03
 -5.9304420e-02
  4.5304853e-02
  1.3354614e-02
  6.4351536e-02
  8.5461456e-03
  1.4858120e-02
  1.0433489e-02
  1.3448491e-02
  2.2196562e+00
  4.4019911e-02
  2.2108188e-02
  1.4718020e+00
  6.2999286e-02
  5.7412016e-01
  1.5554776e-03
 -5.9582520e-04
  9.9558942e-04
  4.9430868e-03
  8.8573014e-03
  9.0982979e-03
 -3.5228401e-01
 -1.7446346e+00
 -1.5570179e-02
 -2.2183590e-02
 -8.5350685e-03
  3.2149829e-02
  1.0545071e-03
 -1.0154433e-02
 -3.4152269e-02
  1.3984150e-02
  3.9944358e-02
  6.7994618e-01
 -1.2735240e-02
 -2.9210649e-02
 -1.6542384e-02
  2.1968578e-04
  1.5186529e-01
  1.9103218e-02
 -4.6008751e-03
 -1.0974297e-02
  1.6272170e-03
  4.5596343e-03
 -1.1038798e-02
 -2.3399362e-04
 -1.8901225e-02
 -7.3777519e-02
  2.1357716e-03
 -4.0017660e-03
 -1.2566366e-02
  4.8080355e-02
 -1.1544606e-03
 -2.7639490e-02
 -3.8310338e-02
 -1.4439047e-03
  6.6285240e-03
 -7.2680837e-03
  5.2768964e-01
 -7.4015900e-02
  7.4776542e-01
  3.8169723e-03
  1.1484864e-02
  1.3388706e-02
  6.5148696e-02
  6.7868978e-02
  8.7420791e-03
  8.1370110e-03
  5.9179096e-03
 -4.1783877e-02
 -1.5636839e-02
 -3.5322376e-03
 -5.0440873e-03
 -3.6958241e-01
  8.6265383e-03
  4.8807893e-02
 -2.4802292e-02
  5.6576271e-02
  3.1838857e-02
 -2.4276083e-02
  1.3244738e-01
 -1.5051348e-02
  3.6257155e-02
  1.5068709e-02
 -4.8248759e-03
 -2.5465828e-01
  9.3077645e-03
 -3.9432261e-02
  9.3169264e-02
  5.2117057e-02
 -9.0547669e-01
  4.2169136e-03
  6.1478086e-02
  3.9614327e-03
 -7.2072549e-03
 -1.3625234e-02
  6.1468906e-03
 -2.2151969e-01
 -2.2886766e-01
  4.4357190e-03
  1.5616658e-02
 -6.4587095e-03
 -9.3695022e-02
  1.1459449e-02
 -3.1414835e-04
 -2.7740771e-02
 -1.0843553e-01
  3.8385022e-01
 -8.6468953e-01
  6.3918218e-02
 -1.6791239e-01
  8.7975468e-03
  4.0238160e-03
 -2.9683081e-02
  1.6974835e-02
 -6.1025764e-03
 -9.8789083e-03
 -2.8172147e-02
  2.9190544e-03
 -2.8857848e-02
  8.1486842e-03
 -2.6265606e-02
 -3.1268835e-01
  9.8664269e-02
 -5.6720688e-03
  1.6192836e-03
 -6.1762747e-03
  4.7114413e-02
  1.1919664e+00
  1.7910931e-02
  5.8899343e-01
  6.4478189e-02
 -7.7096577e-04
  3.4648785e-01
  5.3838464e-03
  2.7760479e-03
 -1.2800665e-02
  2.3591857e-02
  5.9514079e-02
 -1.0063611e-03
  6.5617420e-02
  2.4951298e-02
  1.9142373e-02
  2.8075987e-02
 -4.6320987e-04
  3.1252748e-03
  2.6018566e-02
  5.2876346e-04
 -3.9541174e-02
 -1.2308709e-01
 -1.5921288e-03
 -6.7712009e-02
  3.4579718e-01
 -1.2844071e-02
  2.8100844e-02
  4.2221852e-02
  3.1143430e-01
 -7.5905994e-03
  6.6736943e-01
  1.3922721e-01
 -4.8958379e-01
  8.6795958e-03
  7.4640834e-03
  2.0279510e-01
  1.8009638e-02
  3.4680106e-02
  1.1434832e-02
  1.2787084e-02
  5.1687928e-03
  1.0985823e-02
 -4.8491112e-03
  3.1125638e-01
 -1.5017816e-02
  2.5545242e-01
 -5.7010743e-04
 -3.4821484e-02
  2.3525760e-02
 -5.8063716e-01
 -4.3561362e-02
 -4.4518981e-02
 -5.4809172e-03
  1.1916237e-02
  4.5108162e-02
  5.4934168e-01
  7.9183554e-04
  3.9381453e-01
  4.8048113e-02
 -1.8687805e-02
  2.8399670e-01
 -1.5093608e-02
  1.5659800e-01
  1.9088903e-03
 -9.2310394e-04
  1.5578121e-03
 -1.7390288e-02
  3.7759847e-03
 -1.0591721e-01
 -5.9346521e-01
  1.2788401e+00
  4.5076460e-02
  5.9054827e-04
 -2.4050625e-01
 -6.6411891e-03
  1.5608485e-01
  4.6189535e-02
  4.4855133e-02
  6.1789863e-03
 -1.2693067e-01
 -4.1251281e-01
  8.3754279e-02
 -2.0461497e-01
  1.7197423e-02
  1.1348356e-01
  3.5112843e-02
 -4.1308315e-03
  5.3698469e-02
  2.4256380e-02
 -1.9242325e-04
 -5.1105539e-03
 -1.3208603e-02
 -4.4675432e-02
  2.7946545e-02
 -1.2017371e-01
  9.4510305e-01
  2.1686954e-02
  7.5143799e-03
 -7.3127868e-03
  2.0215763e-02
  2.9657930e-02
 -4.8066815e-03
 -1.3182061e+00
 -2.8205413e-01
 -6.6477425e-02
  2.6223451e-01
  4.2963195e-01
  4.0591693e-01
 -2.2626675e-03
  9.2160970e-01
 -8.3175428e-02
  4.3445621e-03
  4.7299647e-01
 -2.0172980e-01
 -2.0337233e-03
 -1.1023190e-03
  1.7919079e-03
  1.4799301e-03
 -4.1432478e-03
 -1.4786564e-02
  1.0070140e+00
 -6.3391525e-04
 -7.9321712e-02
  3.5478398e-03
  1.7974263e-02
  5.6777865e-02
 -6.8404423e-03
  7.7688858e-02
  1.0130254e-02
 -9.1518730e-02
  1.9102356e-01
  5.6153048e-02
 -1.3473958e+00
  1.3932702e-02
  2.3161119e-03
  6.5385714e-02
  5.6647817e-03
  2.3414396e-02
  1.6670228e-03
 -1.4144514e-02
 -6.2085395e-03
  3.5822340e-03
 -1.3416531e-02
 -1.7073471e-02
 -9.1333225e-02
  1.8049565e-01
  5.2076403e-02
  2.0247260e-03
 -1.2483147e-02
  3.1264909e-02
  1.4778650e-02
  1.3359491e-02
  6.9638272e-03
  1.3059050e-02
 -6.7366124e-03
 -1.1525267e+00
 -2.5195323e-03
  2.5053665e-01
  5.6967892e-02
 -1.2315846e-03
 -7.1927774e-01
 -3.2720815e-02
  1.3720464e+00
  8.3849169e-03
  5.6745362e-04
 -1.9347863e-01
  3.5355845e-03
 -1.1840069e-02
 -2.2490500e-02
  9.2068845e-03
 -7.0008355e-01
 -4.5820125e-03
  3.0015919e-03
 -2.8116598e-03
  3.4395056e-03
  2.5572041e-01
  6.9796699e-03
  6.4810455e-02
 -8.6383224e-01
  6.8781385e-04
  4.3367627e-01
  8.3503403e-02
 -8.8016254e-01
 -2.8769483e-03
  1.3924322e-01
 -9.2408097e-01
  5.1562421e-02
  1.0875207e+00
  2.5892723e-02
 -6.5413555e-03
  4.1738646e-03
 -7.6051960e-03
 -3.4372793e-03
 -3.1066792e-02
 -4.2040419e-02
  1.0301444e-02
  1.0600738e-02
  1.6926816e-01
 -4.2736679e-03
  7.0058540e-03
 -8.2658619e-02
 -1.2685861e-02
  6.6657960e-03
  2.9540781e-03
 -5.0077069e-01
  1.0082746e+00
  1.0601678e-02
 -9.8295325e-01
  1.2494551e-01
 -8.9066857e-01
 -1.3563593e-01
  2.3850124e-02
 -4.7041160e-01
  2.2631509e-03
 -1.3894061e-02
 -1.8112621e-01
  4.0006127e-02
  3.1511858e-02
  7.7045406e-03
 -1.1359550e-03
  4.4126773e-01
  3.2887872e-02
  2.5670443e-02
 -2.4547059e-02
  9.9895773e-03
  8.9792900e-02
  2.4964366e-02
 -6.6847377e-03
 -1.9398244e-02
 -1.8125004e-01
  8.6508054e-01
  1.1797128e-02
 -4.5171153e-02
 -1.1922900e-01
  3.3323723e-01
 -2.2664514e-01
  3.0527869e-04
  1.1028358e-01
  2.1457430e-02
 -5.6739305e-03
 -2.3334138e-03
 -2.9413501e-02
  2.5968803e-03
 -1.0593898e-02
 -1.3625331e-02
 -5.2046746e-01
 -2.2845110e-02
 -2.2359183e-02
 -4.4418150e-03
 -6.9436571e-04
  9.3918582e-03
  3.5027773e-03
  1.0339832e-02
 -7.2809064e-01
  1.6462956e-02
 -2.5630188e-01
  9.4596738e-01
  8.0879718e-01
  8.5635334e-02
  2.8913212e-01
  3.6901906e-01
  3.5046327e-01
  3.3346725e-01
  6.8773085e-04
  1.5024342e-02
 -5.9966534e-02
  7.8660259e-03
  4.4307346e-04
 -1.8330127e-02
  1.3524655e-02
 -2.6408766e-04
 -1.8795252e-01
  2.7920404e-02
  2.1001279e-02
 -1.8391119e-01
  6.9502331e-02
 -1.5432474e-03
  3.3363238e-02
 -1.4044832e-02
  6.0041726e-01
  1.6926516e+00
 -1.1522557e-02
 -4.0592352e-01
  3.8446552e-01
  9.2674541e-01
  1.9908196e-01
 -7.4230866e-03
  3.5924945e-02
  2.4694832e-02
  1.2230785e-02
 -6.2184450e-03
  2.2911318e-03
  1.3474795e-01
  3.0863810e-01
 -3.5447057e-02
  1.3240892e-02
  5.7037450e-02
  1.7544386e-01
  2.5694001e-02
  7.4202926e-03
 -2.5497420e+00
  1.7075315e-02
 -6.2072207e-03
  3.6743987e-02
  5.6922108e-01
 -4.5014483e-01
  8.9284591e-03
  4.1689011e-01
  5.8899987e-02
 -6.5169579e-01
  5.6151068e-01
  2.1045055e-02
 -5.0486380e-01
  2.9036759e-03
 -3.5237777e-03
 -7.5629214e-03
 -4.3615825e-03
 -2.8272245e-02
 -2.3816465e-01
 -3.6027979e-02
 -6.8344206e-01
  6.0089599e-02
  7.0117519e-04
  6.6374436e-02
  1.4054071e-03
 -7.6681113e-01
 -9.2225276e-02
 -3.5165793e-01
 -9.6122455e-03
  5.9967257e-02
 -1.0717561e-03
 -2.8282768e-01
  3.8094538e-01
  9.9443216e-03
 -5.9971994e-01
  2.1686463e-01
  1.7682690e-02
 -5.8520103e-01
  1.4175549e-02
 -2.4379535e-01
  5.0825608e-01
 -1.2692423e-02
 -9.0893934e-04
  2.1215574e-01
 -8.8081771e-01
  2.0530322e+00
 -3.1057086e-02
  2.3849519e-02
 -1.0191336e-02
  3.3214951e-03
  2.4636947e-02
 -1.4767110e-02
 -8.8149691e-03
  1.6758328e-02
 -4.8197629e-03
 -9.3017817e-02
  2.1354232e-02
  4.7501610e-03
  9.3080886e-03
 -5.6150318e-03
 -8.4492350e-01
  1.1280897e-02
 -1.7760478e-02
 -9.4465530e-03
 -6.6980789e-03
  1.3108257e-02
  2.4695661e-02
 -5.8325004e-02
 -7.3401123e-02
 -2.9241309e-01
  9.4069717e-03
 -4.2856431e-01
 -9.4365932e-02
 -1.2680664e-02
 -9.3495054e-03
 -8.6884983e-03
 -6.2426188e-05
  1.1508554e-02
 -1.1460941e-02
  9.1049643e-03
  3.3669358e-01
 -1.1953839e-02
  6.2202557e-04
 -1.4169258e-02
  8.3881535e-02
  2.4479176e-01
 -9.2620729e-03
 -3.4197951e-03
  8.0006095e-03
  2.4586488e-03
  2.9459292e-01
 -2.4085939e-02
  3.1294350e-02
  1.5038462e-01
  1.4961282e-02
 -2.5829375e-01
  7.2455485e-03
  2.1687645e-01
  1.0192261e-02
  3.8483564e-02
 -7.5840652e-02
  2.2474969e-02
 -1.4905387e-02
  2.4771560e-02
  2.1083835e-01
  3.2588947e-01
  4.7666061e-01
  2.4588013e-02
  3.5436961e-01
  4.0844906e-02
  1.0941128e-01
  2.2686357e-03
 -3.0321080e-02
 -2.6172025e-03
 -1.3017330e-01
  1.2418122e+00
  1.2906875e-02
 -4.9467799e-03
  8.8610068e-02
 -6.3765103e-01
  7.7923870e-01
  8.1050647e-03
 -3.2576004e-01
 -3.4371402e-02
  6.0323685e-01
  2.4546877e-02
  7.9117101e-03
 -1.6444327e-02
  1.3663759e-02
  4.7053033e-03
 -1.1307498e+00
 -2.5370391e-02
  4.1623881e-01
  7.0020892e-02
 -1.1281624e-01
  3.1738341e-01
 -3.3409502e-03
 -1.5809922e-01
  9.9594835e-03
  1.1843621e-02
  2.8217331e-01
 -8.3316632e-02
 -6.0474449e-01
 -1.4112814e-01
 -3.7453225e-01
 -1.3879794e-01
 -5.8160899e-03
  1.0994327e-02
 -9.9123188e-04
 -4.3038003e-02
 -6.2346917e-02
 -7.0453542e-03
 -1.9020107e-02
  9.0214357e-02
 -4.4605169e-02
  5.3585774e-01
  1.9355890e-01
  1.9781805e+00
 -7.4254975e-02
  2.0120747e-02
  2.7336088e-01
 -2.1712084e-03
  9.2306983e-04
 -1.3431461e-01
  2.1307008e-02
 -5.2104670e-01
  4.9329121e-02
 -8.0232192e-03
  1.3339393e-01
 -1.9490929e-02
 -1.2943904e-01
 -4.6128127e-01
  3.2471862e-01
  8.9212330e-03
 -7.3618293e-02
  1.4020444e-02
  5.1099859e-02
 -5.2935535e-01
 -1.0744222e-02
  3.3228196e-02
  1.5391350e-01
 -3.4318327e-03
 -1.2238638e-02
  4.7274869e-02
  3.4420946e-01
 -4.0575796e-01
  1.1784646e-02
 -3.2628003e-01
 -1.7530745e-02
 -2.1043712e-01
 -7.5812232e-01
  2.5864739e-02
  6.5385610e-01
  3.6457103e-01
 -5.0032663e-01
  5.8183384e-01
  7.0677437e-03
 -3.4264910e-01
 -5.0975543e-02
  1.3007466e-02
  4.2357269e-01
  5.2542179e-03
 -8.3977491e-02
 -7.1493825e-03
  3.8349712e-01
  8.2482211e-02
  1.8489758e-02
  1.5954667e+00
 -7.0665693e-03
 -8.0892543e-04
 -5.4044598e-01
  3.4968921e-03
  3.9688802e-01
  2.6750105e-02
 -1.3074929e-01
 -3.0472161e-02
 -1.0264812e-01
 -4.5709860e-01
 -5.7468984e-02
 -2.5607172e-01
 -6.4728510e-01
 -4.0652659e-03
 -8.3135374e-02
  1.7130679e-03
 -9.0778312e-03
 -3.8362193e-01
  1.2552011e-02
  3.5778901e-01
  1.3194878e+00
 -1.6669327e-02
 -2.2465409e-01
  1.0674909e-02
  8.5437857e-02
  2.8947389e-02
 -3.3477384e-01
  1.2668553e-01
  2.7185241e-03
  1.2201817e-02
 -2.3652963e-02
 -1.2481472e-01
  1.1756196e+00
  4.9824896e-01
 -1.1333072e+00
  4.6798192e-02
 -1.5140966e-01
  1.2772408e-01
  3.3644840e-01
 -1.3108730e-01
  1.4606064e-04
  1.7229775e-02
 -2.3193765e+00
 -2.3054013e-03
 -3.6283028e-01
 -1.2812170e+00
  9.0171725e-01
 -1.0208763e+00
 -1.9382371e-02
  8.7892056e-01
  7.0061074e-03
  2.1924967e-02
  9.4232701e-02
 -2.7166398e-02
  5.1411241e-02
 -5.1055852e-02
  1.3219613e-01
 -2.0420736e-02
 -1.9540511e-02
  1.0628706e+00
 -2.8637308e-01
 -1.0538152e+00
 -7.5782549e-01
  1.7478674e-04
 -4.2329830e-04
 -2.8507849e-02
 -1.2538579e-02
  5.3150240e-02
 -2.4674293e-02
 -3.1995870e-02
  7.5417086e-03
  1.3388610e-01
 -1.9000700e-01
 -2.7700530e-02
  1.7529242e-02
  2.0759542e-02
  2.1306135e-02
  1.2227956e-03
 -1.0884898e-02
 -4.8197657e-03
 -7.4166497e-03
  6.0230810e-03
 -3.0213326e-02
  9.0070730e-03
  3.6167026e-02
  1.5175308e-02
 -1.0010240e-01
 -1.4114591e+00
 -2.0605116e-01
 -1.6468136e-02
  2.0333207e-03
  2.1987567e-02
  2.5980731e-02
 -1.1393038e-02
 -1.2574255e-02
 -9.4542578e-03
  1.6383352e-02
 -6.8145275e-01
  5.1668906e-01
 -1.4312322e-01
 -9.8878546e-03
 -1.2155386e-02
  9.9147491e-02
 -4.6956018e-04
 -1.1220235e-02
 -2.0925088e-02
  5.8947790e-01
  7.5658873e-02
  4.1480735e-03
 -1.0561275e-01
  2.1964164e-02
  6.7146840e-03
  1.2540820e-02
  7.0011102e-02
  8.6432171e-01
 -1.7443616e-02
  1.4251162e-02
 -6.2277830e-01
 -7.3790520e-02
 -3.3312254e-03
 -3.9283545e-03
 -3.7617099e-02
  5.4451799e-01
 -5.8095169e-01
 -1.8624353e+00
  3.8277782e-02
  2.5816651e-02
  1.0320307e+00
  1.7648019e-02
 -2.3405815e-02
 -2.8797088e-02
  1.3747240e-02
 -1.6815202e-01
 -1.2461138e-01
  1.2014261e-01
 -5.9684077e-03
  8.1108469e-01
 -1.4778817e+00
  9.1114296e-03
 -3.0205601e-01
 -8.9881774e-03
 -6.3675514e-05
 -3.1754476e-01
  3.0888934e-03
 -6.1907028e-03
 -1.0250609e-02
  1.3733986e-01
  7.3889148e-01
 -1.5526959e-02
  1.1924093e+00
  2.0979913e-02
  1.3178051e-02
  2.9516190e-01
 -2.4794417e-03
  4.0080525e-02
 -3.9010132e-03
  4.5637764e-02
 -6.0443592e-01
  3.8423292e-02
  4.0528604e-01
 -2.0906411e-02
 -4.0415242e-02
  7.2652131e-01
 -5.4942358e-01
 -5.0762618e-01
  3.5516999e-04
  3.2820407e-01
 -1.5547219e-01
 -2.2939670e-04
 -2.8467750e-02
 -8.7577298e-02
  8.8082433e-01
  1.0018512e+00
  1.3467066e-01
 -5.1659209e-01
  5.6752004e-03
  1.4765477e-02
 -1.0532564e-01
  2.0454584e-03
 -1.1048695e-03
 -5.9396248e-02
 -9.1027729e-02
  2.1046512e-03
 -6.4496122e-02
 -7.7450983e-02
  3.0692869e-01
  4.1863999e-01
  6.2939751e-01
 -6.2548071e-01
  6.1618298e-01
 -1.9790065e-02
 -6.7137666e-02
  3.7652352e-01
  8.2778065e-03
 -4.9417683e-01
 -3.2283923e-01
 -2.8906208e-02
 -7.7576804e-01
 -1.0679994e+00
 -1.4827347e-01
 -9.8101120e-04
  1.3224776e-02
 -3.9618928e-02
 -2.7499637e-03
 -3.6994022e-01
 -1.6796690e-01
  6.5996937e-02
  2.7541861e-01
  3.2876534e-03
 -6.7499220e-01
  1.2474062e-01
  1.4342347e+00
  1.0459040e-01
  1.2801661e+00
  6.2107062e-01
  3.5461843e-02
  3.0550878e-02
 -6.5147847e-01
 -2.8693853e-02
  7.8583304e-03
 -4.6406209e-04
 -4.8301455e-01
  8.8527191e-01
  7.1086884e-02
  5.1500636e-01
  7.3802848e-03
 -2.8334521e-02
  8.4142968e-02
  1.0942088e-02
  1.3870557e-01
 -1.6490351e-01
  1.4404242e-02
  2.6231003e-01
  3.2719201e-01
  1.2541025e+00
  2.9120028e-01
  3.7128484e-01
  5.0895441e-01
 -1.4612445e-01
 -1.0038579e+00
 -5.4619093e-03
 -2.0629190e-02
  3.3553588e-01
 -2.6727689e-03
 -1.0207316e-01
 -1.7009142e-01
 -1.4238812e-01
 -9.1280520e-01
 -1.6334139e-02
  3.4939930e-01
  3.3336945e-02
 -1.8091463e-01
  2.1658744e-01
 -1.7929545e-02
 -6.2566443e-04
 -1.7047333e-02
 -9.9331252e-02
  8.5971898e-01
 -6.5960866e-01
  1.0857009e+00
  2.4218373e-01
 -8.5650243e-02
 -4.0943378e-01
 -1.0143105e+00
 -5.9896314e-01
  1.0719146e-03
 -4.5566767e-02
  8.6012229e-02
 -1.0988396e-03
  2.6408145e-01
 -3.0464819e-02
 -2.1143970e-01
  3.6653441e-01
  1.2150052e-03
 -1.0980432e+00
  5.3415829e-03
  5.9918195e-02
 -4.3585293e-02
 -4.1646142e-02
 -6.7356825e-01
 -2.2320474e-02
 -5.1825116e-03
 -3.3788038e-03
 -6.5361140e-03
  7.1726427e-03
 -9.5403998e-04
 -1.2136836e-01
 -6.1520450e-02
 -4.0746096e-01
 -7.0669577e-02
  8.4315678e-03
 -2.8629436e-03
  1.4603157e+00
  1.1297508e-02
 -3.1691916e-02
 -1.2947744e-02
 -9.5712595e-02
  8.9148629e-01
  3.5393771e-02
  1.4533441e-02
 -5.7350607e-03
  5.1036780e-03
 -1.2532382e-01
 -9.3883071e-03
  3.7089172e-01
  1.4054717e-02
 -1.2653937e-03
 -9.4444947e-03
 -2.1539150e-02
 -7.0664454e-03
  2.2489343e-02
  2.0888248e-01
 -1.2043840e+00
 -4.3984553e-01
  5.4292678e-04
  4.8604263e-03
 -1.4204288e-02
  1.0106608e-01
  1.0025497e-02
 -5.5562414e-02
 -1.5322829e-02
  2.7850736e-02
  1.6749088e-02
  1.1880742e-03
 -4.9503663e-01
 -1.9969692e-02
  4.5052622e-02
  3.4163219e-01
  6.6226861e-04
 -2.9402636e-02
  2.9080252e-03
 -5.5404287e-04
  1.0425212e-02
 -5.0456710e-03
 -2.0971016e-03
 -4.3674156e-02
 -7.1426702e-01
 -9.6989226e-01
  5.1433802e-01
 -4.7621509e-01
 -1.9123236e-02
  2.6673527e-02
 -6.4468718e-01
  3.5951119e-02
 -9.0153731e-02
 -1.7868219e-02
  5.3743547e-01
 -4.9701941e-01
  1.3455494e-02
 -7.3066950e-01
  2.7112064e-03
 -1.2872194e-01
  3.3940926e-01
  1.4885823e-02
  8.0806697e-03
 -7.5640921e-03
  8.8668551e-04
  6.7941070e-02
 -2.1819985e-02
 -1.2970707e-02
 -8.8574737e-02
  1.8648566e-01
  1.6079955e+00
  3.1857163e-02
  1.0095071e+00
  1.1903094e-03
  5.1775157e-01
 -1.4267131e+00
 -8.9587076e-03
 -1.9748384e-01
 -3.6197391e-03
 -5.4413313e-01
  8.4945254e-02
  6.0674208e-03
  4.4723162e-01
 -4.4272034e-03
  2.5156105e-02
 -1.1190558e-01
 -1.9783543e-02
  7.6268697e-01
 -7.3388321e-03
  8.9315826e-04
 -1.2968571e-02
 -2.0371876e-03
  2.1432674e-02
 -1.0691339e+00
  1.1854748e+00
 -1.8479762e+00
 -1.2025003e+00
  2.8429204e-04
  1.2538240e-02
 -2.1592280e-01
  1.7441325e+00
 -1.6872813e-03
 -8.5957802e-04
  6.2047608e-02
 -2.2919147e-01
 -3.2078028e-01
  1.5989916e-02
  1.6440883e-02
  4.2431703e-01
  8.2348645e-01
 -2.1086264e+00
  6.2975630e-02
  2.5209370e+00
  4.0910713e-02
 -2.4877270e-03
 -1.3813892e-02
  7.4904906e-03
  2.2770090e-03
 -3.9513379e-02
  5.6831872e-01
 -8.7253749e-01
 -2.9402816e-01
  1.7643937e-01
 -3.7072264e-03
 -4.4284603e-01
  3.9485312e-01
  1.8243866e-02
 -4.8836604e-01
  2.1497864e-02
 -1.9331952e-03
 -8.6726338e-01
  2.5411189e-02
  1.8775197e-02
 -5.4397481e-03
 -1.0483899e+00
 -9.6998163e-02
 -1.3592695e-01
  9.1940194e-02
 -2.1813473e-02
 -1.6038571e-02
  9.9042431e-03
 -2.6569916e-03
  7.4237743e-03
 -1.7647043e-01
 -2.6716983e-01
 -8.7942958e-02
  1.7973105e+00
  1.4648393e-01
 -7.6884918e-02
 -6.2874347e-01
 -4.5010126e-01
  1.8189222e-04
 -3.7706727e-01
  2.2676025e-01
  5.3236179e-02
 -7.8536683e-01
  2.1560516e-02
  3.2432353e-01
 -3.1014793e-02
 -6.7058709e-03
  5.8071506e-01
  1.2996291e-02
 -3.6298302e-01
  3.3012845e-02
  1.6417257e-02
  8.7871579e-03
 -7.8743743e-03
  2.1111889e-02
  6.7367047e-01
  4.2541143e-01
  4.4448686e-01
 -4.1035834e-01
  3.9524264e-03
  5.0374195e-02
  4.5043165e-03
 -1.8844327e-01
  3.8244780e-03
  2.7423752e-02
  9.3816482e-02
 -5.8537096e-02
 -2.3286635e-01
 -5.0854313e-01
 -1.8381914e-01
 -6.3391156e-02
  7.5725758e-01
  4.6099457e-01
 -3.1043699e-02
 -4.3675762e-01
 -1.8111551e-02
 -1.1585591e-02
 -5.6477962e-03
  6.1738235e-03
  3.8727068e-03
 -5.8573157e-02
  3.6224294e-01
  3.7416571e-01
 -1.9026408e+00
 -4.8864293e-01
 -2.4801670e-03
 -6.8429703e-01
  2.9218358e-01
 -7.8459136e-02
 -2.2918712e-03
  4.5395163e-03
  2.9183933e-01
 -4.7751343e-01
  1.1193596e-02
  1.5121062e+00
 -3.4736651e-01
 -3.8943332e-01
 -1.1323280e+00
 -3.2831453e-02
  9.8362833e-01
  8.0241536e-04
 -1.8878609e-02
 -1.7751191e-03
 -8.2701696e-03
  2.1892374e+00
 -1.8912906e-02
 -2.3196258e-04
  4.4290763e-01
  2.5382771e+00
  2.9344391e-02
 -2.4844266e-02
  4.6599707e-01
  1.3145241e+00
  1.1457713e-04
 -5.4601943e-03
 -5.1336318e-01
  3.6342170e-03
 -9.1250902e-01
  1.5101334e-03
 -6.3056640e-02
 -3.3148138e-03
 -2.4062692e-01
  2.1894105e-02
  4.1068983e-03
  1.1654899e-02
 -5.5907490e-03
 -3.2547537e-02
 -1.4213930e-02
  1.4897346e-02
  5.0977878e-02
  2.3971705e-02
  2.3112321e-02
  1.7473219e-02
  1.2690517e-01
 -1.2904461e-02
  2.6268719e-03
 -3.3657840e-03
 -2.4019884e-02
  5.9389612e-03
 -2.4869831e-03
 -6.1586997e-03
  5.4720312e-01
  1.0555105e+00
  2.9751924e-03
  1.1530597e+00
 -7.6534018e-02
  6.7872987e-03
 -7.4789472e-02
 -5.5794879e-03
  9.6295960e-03
  1.1314477e-02
  2.1702798e-02
  2.2150153e-02
  1.2021154e-02
  1.3661419e+00
 -6.3756509e-03
  2.6017283e-03
 -2.9850106e-03
  8.8035637e-01
 -7.9543516e-03
 -4.3038588e-02
 -1.3391787e+00
  4.1764504e-01
 -8.6164232e-03
  3.9888709e-03
 -2.7261233e+00
  1.0503918e+00
  4.5613018e-01
 -9.9069569e-03
  4.3949783e-03
 -2.4159646e-01
 -3.8896880e-01
 -5.9485521e-02
  4.7569105e-01
  1.4876801e+00
 -5.2981279e-03
  1.3208752e-02
  1.6605187e-02
 -2.1599602e-02
  1.0604216e+00
  4.4027320e-03
  4.3022711e-02
 -1.2621174e-02
  1.2321405e+00
 -1.1448971e-02
 -8.8774031e-03
  8.5538505e-03
  2.5774546e+00
  3.5633650e-02
 -1.3387584e-02
  1.3641833e+00
 -4.8724896e-01
 -1.8469255e+00
 -5.6418828e-03
  5.1720363e-01
 -7.0921935e-02
 -1.0038934e+00
  3.4062192e-03
 -1.2903864e-03
  2.2766499e-02
 -3.3433145e-01
  1.7489064e-02
  3.8810987e-02
  2.6828710e-02
  6.2886260e-02
  1.0108753e-02
  8.6352257e-03
 -1.5909432e-02
  6.7420051e-02
 -1.2187456e-02
  1.6411614e-02
  4.3551296e-01
  2.9934737e-01
 -3.1557416e-03
  8.8180524e-05
  4.8959866e-01
 -6.7828923e-02
 -6.4688003e-01
 -3.7308913e-03
  7.2428679e-01
 -2.2342433e-01
  4.6794975e-01
 -2.3212101e-02
  7.7982288e-04
  5.0258166e-01
 -1.5942019e-01
 -4.6118917e-03
  1.8039423e-03
 -8.6674577e-04
  2.2165260e+00
 -3.0530982e-03
  4.1938614e-02
  1.6806333e-01
  1.2537254e+00
  1.6962105e-02
 -1.9660011e-02
  1.6508819e-01
 -6.3337547e-01
  3.3474211e-02
 -1.0096597e-02
 -5.0444239e-01
  1.2723222e+00
  1.9137613e+00
  1.4966873e-02
  1.3655366e-02
 -1.3322398e-05
  9.5746666e-01
 -1.3894045e-01
 -2.8335722e-02
  6.5616107e-01
 -9.7062951e-03
  4.1649513e-02
 -8.7018404e-03
  4.8062773e-03
 -7.3440671e-02
  1.3007517e-03
 -6.3367434e-02
  4.8217592e-03
  4.9059394e-01
 -3.0745717e-03
  1.4604495e-03
 -4.8211637e-01
 -1.1284338e+00
 -5.0817612e-03
 -2.6958378e-02
 -9.3769282e-01
 -1.1470319e+00
  7.2744900e-01
 -4.2726949e-02
  9.2300147e-01
  2.6368162e-02
 -8.3743936e-01
  5.8794588e-01
 -1.6701873e-02
  3.7532628e-02
  2.9387628e-03
 -1.0456595e-02
 -1.4042321e-02
 -1.5904497e-03
  2.1503241e+00
 -6.4591947e-03
  5.5414934e-02
 -5.7142514e-01
  3.1227586e-01
 -1.2642656e-02
 -2.4884164e-05
 -7.4334055e-01
  4.7743431e-01
  1.8840803e-02
  1.9485768e-02
 -6.6074562e-01
 -2.0061092e+00
 -1.1473045e-01
  2.7427295e-02
  3.2284802e-01
 -5.6524944e-01
 -6.6488516e-01
 -1.1000322e-01
 -1.1427359e-02
  6.7785197e-01
  5.2813538e-03
 -3.4578413e-02
  1.0404276e-02
 -1.6536111e-04
  2.9337731e-01
  4.8523801e-03
  3.1385692e-03
 -5.1385574e-02
  1.1481797e+00
  1.6205203e-02
  1.7413789e-02
  7.7861494e-01
 -3.5119858e-01
  8.8008568e-03
  2.4584690e-01
 -1.8596789e-01
 -3.3108678e-01
  2.2223347e-01
  1.8604599e-02
 -4.1028252e-01
  5.4113740e-01
 -3.9333907e-01
  2.0568796e-02
  8.2798051e-03
 -1.1365958e-01
 -1.2603277e-02
 -8.2390016e-04
 -8.6223138e-03
 -4.2232636e-02
 -6.3810633e-03
 -1.2357699e+00
 -1.6683090e+00
 -1.4705751e+00
  1.2250187e+00
  2.7779508e-02
 -1.1070552e-05
  5.4345435e-01
  3.8212290e-01
 -2.1383002e-02
  4.3157781e-03
 -1.5430830e-02
 -9.8425951e-03
 -1.9602377e+00
  4.5398191e-02
 -5.5586128e-03
  1.8735057e-01
 -2.0079904e+00
 -1.8891600e-01
 -4.7186897e-03
 -4.9069000e-04
  4.0194765e-02
 -6.1179203e-04
  1.2315232e-02
  2.1632107e-02
  2.4068605e-02
 -2.1361286e-02
 -1.7710296e-02
 -1.9742390e+00
  5.9110497e-04
 -9.4173932e-03
 -1.2728077e-02
  6.5609473e-03
 -9.7446167e-01
  1.1684596e-02
  3.1072998e-01
  2.3587782e-02
  9.1141529e-02
 -8.7497748e-02
 -3.8707234e-02
 -3.9949745e-01
  4.5698695e-03
  7.8166306e-02
  5.8914989e-01
 -1.3829273e-02
  4.1769676e-02
 -4.5848326e-03
  2.0455917e-02
  1.0539637e-02
  7.0939235e-02
 -2.3018157e-02
 -6.8003589e-01
 -5.6479841e-02
  1.9503410e+00
  1.1099692e-01
  8.8044554e-03
 -5.9651728e-03
 -3.8815477e-01
  7.4912429e-01
 -1.4204716e-02
  1.1135235e-02
 -1.1430446e+00
 -4.5409071e-01
  4.8227257e-01
 -3.4951451e-03
 -6.1530970e-02
 -1.6997342e-01
  1.0968709e+00
 -8.1604522e-01
 -3.0306973e-03
 -4.0735137e-01
 -2.4595503e-03
 -1.9852812e-03
 -3.1572260e-02
